<?xml version="1.0" encoding="UTF-8" standalone="yes"?>
<PMML xmlns="http://www.dmg.org/PMML-4_3" xmlns:data="http://jpmml.org/jpmml-model/InlineTable" version="4.3">
	<Header>
		<Application name="JPMML-SkLearn" version="1.5-SNAPSHOT"/>
		<Timestamp>2019-09-04T15:28:44Z</Timestamp>
	</Header>
	<DataDictionary>
		<DataField name="y" optype="categorical" dataType="string">
			<Value value="APPLICATION"/>
			<Value value="BILL"/>
			<Value value="BILL BINDER"/>
			<Value value="BINDER"/>
			<Value value="CANCELLATION NOTICE"/>
			<Value value="CHANGE ENDORSEMENT"/>
			<Value value="DECLARATION"/>
			<Value value="DELETION OF INTEREST"/>
			<Value value="EXPIRATION NOTICE"/>
			<Value value="INTENT TO CANCEL NOTICE"/>
			<Value value="NON-RENEWAL NOTICE"/>
			<Value value="POLICY CHANGE"/>
			<Value value="REINSTATEMENT NOTICE"/>
			<Value value="RETURNED CHECK"/>
		</DataField>
		<DataField name="x1" optype="categorical" dataType="string"/>
	</DataDictionary>
	<TransformationDictionary>
		<DefineFunction name="tf-idf@1" optype="continuous" dataType="double">
			<ParameterField name="document"/>
			<ParameterField name="term"/>
			<ParameterField name="weight"/>
			<Apply function="*">
				<TextIndex textField="document" wordSeparatorCharacterRE=" ">
					<FieldRef field="term"/>
				</TextIndex>
				<FieldRef field="weight"/>
			</Apply>
		</DefineFunction>
	</TransformationDictionary>
	<MiningModel functionName="classification">
		<MiningSchema>
			<MiningField name="y" usageType="target"/>
			<MiningField name="x1"/>
		</MiningSchema>
		<LocalTransformations>
			<DerivedField name="lowercase(x1)" optype="categorical" dataType="string">
				<Apply function="lowercase">
					<FieldRef field="x1"/>
				</Apply>
			</DerivedField>
			<DerivedField name="tf-idf@1(001acce69dc4)" optype="continuous" dataType="double">
				<Apply function="tf-idf@1">
					<FieldRef field="lowercase(x1)"/>
					<Constant dataType="string">001acce69dc4</Constant>
					<Constant dataType="double">4.048630212014726</Constant>
				</Apply>
			</DerivedField>
			<DerivedField name="tf-idf@1(005534a70b6e)" optype="continuous" dataType="double">
				<Apply function="tf-idf@1">
					<FieldRef field="lowercase(x1)"/>
					<Constant dataType="string">005534a70b6e</Constant>
					<Constant dataType="double">4.711725047508269</Constant>
				</Apply>
			</DerivedField>
			<DerivedField name="tf-idf@1(0072efdaa34a)" optype="continuous" dataType="double">
				<Apply function="tf-idf@1">
					<FieldRef field="lowercase(x1)"/>
					<Constant dataType="string">0072efdaa34a</Constant>
					<Constant dataType="double">4.2441915718445955</Constant>
				</Apply>
			</DerivedField>
			<DerivedField name="tf-idf@1(0158863fa432)" optype="continuous" dataType="double">
				<Apply function="tf-idf@1">
					<FieldRef field="lowercase(x1)"/>
					<Constant dataType="string">0158863fa432</Constant>
					<Constant dataType="double">5.236907626876971</Constant>
				</Apply>
			</DerivedField>
			<DerivedField name="tf-idf@1(017ff1ccc78b)" optype="continuous" dataType="double">
				<Apply function="tf-idf@1">
					<FieldRef field="lowercase(x1)"/>
					<Constant dataType="string">017ff1ccc78b</Constant>
					<Constant dataType="double">5.2051589285623905</Constant>
				</Apply>
			</DerivedField>
			<DerivedField name="tf-idf@1(019a80c31e1b)" optype="continuous" dataType="double">
				<Apply function="tf-idf@1">
					<FieldRef field="lowercase(x1)"/>
					<Constant dataType="string">019a80c31e1b</Constant>
					<Constant dataType="double">3.6274697144428707</Constant>
				</Apply>
			</DerivedField>
			<DerivedField name="tf-idf@1(01a21c4d7fcc)" optype="continuous" dataType="double">
				<Apply function="tf-idf@1">
					<FieldRef field="lowercase(x1)"/>
					<Constant dataType="string">01a21c4d7fcc</Constant>
					<Constant dataType="double">3.415556957474357</Constant>
				</Apply>
			</DerivedField>
			<DerivedField name="tf-idf@1(033616ad6870)" optype="continuous" dataType="double">
				<Apply function="tf-idf@1">
					<FieldRef field="lowercase(x1)"/>
					<Constant dataType="string">033616ad6870</Constant>
					<Constant dataType="double">3.5118395321475884</Constant>
				</Apply>
			</DerivedField>
			<DerivedField name="tf-idf@1(034e2d7f187e)" optype="continuous" dataType="double">
				<Apply function="tf-idf@1">
					<FieldRef field="lowercase(x1)"/>
					<Constant dataType="string">034e2d7f187e</Constant>
					<Constant dataType="double">3.336345297800117</Constant>
				</Apply>
			</DerivedField>
			<DerivedField name="tf-idf@1(0387d20d0d1b)" optype="continuous" dataType="double">
				<Apply function="tf-idf@1">
					<FieldRef field="lowercase(x1)"/>
					<Constant dataType="string">0387d20d0d1b</Constant>
					<Constant dataType="double">4.699302527509712</Constant>
				</Apply>
			</DerivedField>
			<DerivedField name="tf-idf@1(03ea9b9cef7d)" optype="continuous" dataType="double">
				<Apply function="tf-idf@1">
					<FieldRef field="lowercase(x1)"/>
					<Constant dataType="string">03ea9b9cef7d</Constant>
					<Constant dataType="double">4.030823593365261</Constant>
				</Apply>
			</DerivedField>
			<DerivedField name="tf-idf@1(041a934b1778 b32153b8b30c)" optype="continuous" dataType="double">
				<Apply function="tf-idf@1">
					<FieldRef field="lowercase(x1)"/>
					<Constant dataType="string">041a934b1778 b32153b8b30c</Constant>
					<Constant dataType="double">5.0627767338926395</Constant>
				</Apply>
			</DerivedField>
			<DerivedField name="tf-idf@1(04503bc22789)" optype="continuous" dataType="double">
				<Apply function="tf-idf@1">
					<FieldRef field="lowercase(x1)"/>
					<Constant dataType="string">04503bc22789</Constant>
					<Constant dataType="double">1.622328685056622</Constant>
				</Apply>
			</DerivedField>
			<DerivedField name="tf-idf@1(04de19ba9fd7)" optype="continuous" dataType="double">
				<Apply function="tf-idf@1">
					<FieldRef field="lowercase(x1)"/>
					<Constant dataType="string">04de19ba9fd7</Constant>
					<Constant dataType="double">3.970414465569701</Constant>
				</Apply>
			</DerivedField>
			<DerivedField name="tf-idf@1(054cc375d1b7)" optype="continuous" dataType="double">
				<Apply function="tf-idf@1">
					<FieldRef field="lowercase(x1)"/>
					<Constant dataType="string">054cc375d1b7</Constant>
					<Constant dataType="double">4.341978022002184</Constant>
				</Apply>
			</DerivedField>
			<DerivedField name="tf-idf@1(0562c756a2f2 0562c756a2f2)" optype="continuous" dataType="double">
				<Apply function="tf-idf@1">
					<FieldRef field="lowercase(x1)"/>
					<Constant dataType="string">0562c756a2f2 0562c756a2f2</Constant>
					<Constant dataType="double">3.9672845725607733</Constant>
				</Apply>
			</DerivedField>
			<DerivedField name="tf-idf@1(0562c756a2f2 fbb5efbcc5b3)" optype="continuous" dataType="double">
				<Apply function="tf-idf@1">
					<FieldRef field="lowercase(x1)"/>
					<Constant dataType="string">0562c756a2f2 fbb5efbcc5b3</Constant>
					<Constant dataType="double">5.005566400320585</Constant>
				</Apply>
			</DerivedField>
			<DerivedField name="tf-idf@1(056314258a60)" optype="continuous" dataType="double">
				<Apply function="tf-idf@1">
					<FieldRef field="lowercase(x1)"/>
					<Constant dataType="string">056314258a60</Constant>
					<Constant dataType="double">3.354805295068283</Constant>
				</Apply>
			</DerivedField>
			<DerivedField name="tf-idf@1(05b93041b0b6)" optype="continuous" dataType="double">
				<Apply function="tf-idf@1">
					<FieldRef field="lowercase(x1)"/>
					<Constant dataType="string">05b93041b0b6</Constant>
					<Constant dataType="double">5.022478240861362</Constant>
				</Apply>
			</DerivedField>
			<DerivedField name="tf-idf@1(060ddd403721)" optype="continuous" dataType="double">
				<Apply function="tf-idf@1">
					<FieldRef field="lowercase(x1)"/>
					<Constant dataType="string">060ddd403721</Constant>
					<Constant dataType="double">5.0108761473088155</Constant>
				</Apply>
			</DerivedField>
			<DerivedField name="tf-idf@1(060ddd403721 a4ab6e2c0f96)" optype="continuous" dataType="double">
				<Apply function="tf-idf@1">
					<FieldRef field="lowercase(x1)"/>
					<Constant dataType="string">060ddd403721 a4ab6e2c0f96</Constant>
					<Constant dataType="double">5.276617892544536</Constant>
				</Apply>
			</DerivedField>
			<DerivedField name="tf-idf@1(066dd4fe77b4)" optype="continuous" dataType="double">
				<Apply function="tf-idf@1">
					<FieldRef field="lowercase(x1)"/>
					<Constant dataType="string">066dd4fe77b4</Constant>
					<Constant dataType="double">3.323130701802937</Constant>
				</Apply>
			</DerivedField>
			<DerivedField name="tf-idf@1(0699bac77427)" optype="continuous" dataType="double">
				<Apply function="tf-idf@1">
					<FieldRef field="lowercase(x1)"/>
					<Constant dataType="string">0699bac77427</Constant>
					<Constant dataType="double">3.592493471637424</Constant>
				</Apply>
			</DerivedField>
			<DerivedField name="tf-idf@1(069ffcd62e52)" optype="continuous" dataType="double">
				<Apply function="tf-idf@1">
					<FieldRef field="lowercase(x1)"/>
					<Constant dataType="string">069ffcd62e52</Constant>
					<Constant dataType="double">3.4286006206663866</Constant>
				</Apply>
			</DerivedField>
			<DerivedField name="tf-idf@1(06e7c4534cb7)" optype="continuous" dataType="double">
				<Apply function="tf-idf@1">
					<FieldRef field="lowercase(x1)"/>
					<Constant dataType="string">06e7c4534cb7</Constant>
					<Constant dataType="double">2.9602394774181544</Constant>
				</Apply>
			</DerivedField>
			<DerivedField name="tf-idf@1(07315ce641ce)" optype="continuous" dataType="double">
				<Apply function="tf-idf@1">
					<FieldRef field="lowercase(x1)"/>
					<Constant dataType="string">07315ce641ce</Constant>
					<Constant dataType="double">3.6221446519373117</Constant>
				</Apply>
			</DerivedField>
			<DerivedField name="tf-idf@1(07b4174549d4)" optype="continuous" dataType="double">
				<Apply function="tf-idf@1">
					<FieldRef field="lowercase(x1)"/>
					<Constant dataType="string">07b4174549d4</Constant>
					<Constant dataType="double">3.659110772061988</Constant>
				</Apply>
			</DerivedField>
			<DerivedField name="tf-idf@1(07b4174549d4 b9925442c9c9)" optype="continuous" dataType="double">
				<Apply function="tf-idf@1">
					<FieldRef field="lowercase(x1)"/>
					<Constant dataType="string">07b4174549d4 b9925442c9c9</Constant>
					<Constant dataType="double">4.054750598342049</Constant>
				</Apply>
			</DerivedField>
			<DerivedField name="tf-idf@1(07b93136ac77)" optype="continuous" dataType="double">
				<Apply function="tf-idf@1">
					<FieldRef field="lowercase(x1)"/>
					<Constant dataType="string">07b93136ac77</Constant>
					<Constant dataType="double">3.6334945011595</Constant>
				</Apply>
			</DerivedField>
			<DerivedField name="tf-idf@1(08ef3639a83b)" optype="continuous" dataType="double">
				<Apply function="tf-idf@1">
					<FieldRef field="lowercase(x1)"/>
					<Constant dataType="string">08ef3639a83b</Constant>
					<Constant dataType="double">4.211348563190298</Constant>
				</Apply>
			</DerivedField>
			<DerivedField name="tf-idf@1(094453b4e4ae)" optype="continuous" dataType="double">
				<Apply function="tf-idf@1">
					<FieldRef field="lowercase(x1)"/>
					<Constant dataType="string">094453b4e4ae</Constant>
					<Constant dataType="double">2.1250003333510783</Constant>
				</Apply>
			</DerivedField>
			<DerivedField name="tf-idf@1(0969e9a2a900 9f11111004ec)" optype="continuous" dataType="double">
				<Apply function="tf-idf@1">
					<FieldRef field="lowercase(x1)"/>
					<Constant dataType="string">0969e9a2a900 9f11111004ec</Constant>
					<Constant dataType="double">5.326450266292412</Constant>
				</Apply>
			</DerivedField>
			<DerivedField name="tf-idf@1(099cce6666b2)" optype="continuous" dataType="double">
				<Apply function="tf-idf@1">
					<FieldRef field="lowercase(x1)"/>
					<Constant dataType="string">099cce6666b2</Constant>
					<Constant dataType="double">5.031495434511551</Constant>
				</Apply>
			</DerivedField>
			<DerivedField name="tf-idf@1(09aea78efbe3)" optype="continuous" dataType="double">
				<Apply function="tf-idf@1">
					<FieldRef field="lowercase(x1)"/>
					<Constant dataType="string">09aea78efbe3</Constant>
					<Constant dataType="double">3.7496562019346737</Constant>
				</Apply>
			</DerivedField>
			<DerivedField name="tf-idf@1(09c74ecb68ee)" optype="continuous" dataType="double">
				<Apply function="tf-idf@1">
					<FieldRef field="lowercase(x1)"/>
					<Constant dataType="string">09c74ecb68ee</Constant>
					<Constant dataType="double">5.4261496265155</Constant>
				</Apply>
			</DerivedField>
			<DerivedField name="tf-idf@1(09dfec4d547d)" optype="continuous" dataType="double">
				<Apply function="tf-idf@1">
					<FieldRef field="lowercase(x1)"/>
					<Constant dataType="string">09dfec4d547d</Constant>
					<Constant dataType="double">3.919983611942809</Constant>
				</Apply>
			</DerivedField>
			<DerivedField name="tf-idf@1(0a4e98ab9a8f)" optype="continuous" dataType="double">
				<Apply function="tf-idf@1">
					<FieldRef field="lowercase(x1)"/>
					<Constant dataType="string">0a4e98ab9a8f</Constant>
					<Constant dataType="double">4.96153684590464</Constant>
				</Apply>
			</DerivedField>
			<DerivedField name="tf-idf@1(0a6eb038c015)" optype="continuous" dataType="double">
				<Apply function="tf-idf@1">
					<FieldRef field="lowercase(x1)"/>
					<Constant dataType="string">0a6eb038c015</Constant>
					<Constant dataType="double">3.8183259194359405</Constant>
				</Apply>
			</DerivedField>
			<DerivedField name="tf-idf@1(0a73937a5263)" optype="continuous" dataType="double">
				<Apply function="tf-idf@1">
					<FieldRef field="lowercase(x1)"/>
					<Constant dataType="string">0a73937a5263</Constant>
					<Constant dataType="double">3.7805457031403638</Constant>
				</Apply>
			</DerivedField>
			<DerivedField name="tf-idf@1(0a9b859f7b89)" optype="continuous" dataType="double">
				<Apply function="tf-idf@1">
					<FieldRef field="lowercase(x1)"/>
					<Constant dataType="string">0a9b859f7b89</Constant>
					<Constant dataType="double">4.74381336205977</Constant>
				</Apply>
			</DerivedField>
			<DerivedField name="tf-idf@1(0c37b8e00f96)" optype="continuous" dataType="double">
				<Apply function="tf-idf@1">
					<FieldRef field="lowercase(x1)"/>
					<Constant dataType="string">0c37b8e00f96</Constant>
					<Constant dataType="double">4.554946245274742</Constant>
				</Apply>
			</DerivedField>
			<DerivedField name="tf-idf@1(0c4ce226d9fe)" optype="continuous" dataType="double">
				<Apply function="tf-idf@1">
					<FieldRef field="lowercase(x1)"/>
					<Constant dataType="string">0c4ce226d9fe</Constant>
					<Constant dataType="double">2.250899903214975</Constant>
				</Apply>
			</DerivedField>
			<DerivedField name="tf-idf@1(0cbca93be301)" optype="continuous" dataType="double">
				<Apply function="tf-idf@1">
					<FieldRef field="lowercase(x1)"/>
					<Constant dataType="string">0cbca93be301</Constant>
					<Constant dataType="double">3.4933823028993807</Constant>
				</Apply>
			</DerivedField>
			<DerivedField name="tf-idf@1(0cf15feb17c3)" optype="continuous" dataType="double">
				<Apply function="tf-idf@1">
					<FieldRef field="lowercase(x1)"/>
					<Constant dataType="string">0cf15feb17c3</Constant>
					<Constant dataType="double">4.964920943888881</Constant>
				</Apply>
			</DerivedField>
			<DerivedField name="tf-idf@1(0d647b132e6f)" optype="continuous" dataType="double">
				<Apply function="tf-idf@1">
					<FieldRef field="lowercase(x1)"/>
					<Constant dataType="string">0d647b132e6f</Constant>
					<Constant dataType="double">4.346533838538045</Constant>
				</Apply>
			</DerivedField>
			<DerivedField name="tf-idf@1(0e60c8ecc79d)" optype="continuous" dataType="double">
				<Apply function="tf-idf@1">
					<FieldRef field="lowercase(x1)"/>
					<Constant dataType="string">0e60c8ecc79d</Constant>
					<Constant dataType="double">4.4062741482773395</Constant>
				</Apply>
			</DerivedField>
			<DerivedField name="tf-idf@1(0efaf9ea8493)" optype="continuous" dataType="double">
				<Apply function="tf-idf@1">
					<FieldRef field="lowercase(x1)"/>
					<Constant dataType="string">0efaf9ea8493</Constant>
					<Constant dataType="double">2.9369957366332065</Constant>
				</Apply>
			</DerivedField>
			<DerivedField name="tf-idf@1(0f12fd1c2b99)" optype="continuous" dataType="double">
				<Apply function="tf-idf@1">
					<FieldRef field="lowercase(x1)"/>
					<Constant dataType="string">0f12fd1c2b99</Constant>
					<Constant dataType="double">3.8191340002879937</Constant>
				</Apply>
			</DerivedField>
			<DerivedField name="tf-idf@1(0f12fd1c2b99 31fd3123f41c)" optype="continuous" dataType="double">
				<Apply function="tf-idf@1">
					<FieldRef field="lowercase(x1)"/>
					<Constant dataType="string">0f12fd1c2b99 31fd3123f41c</Constant>
					<Constant dataType="double">4.916130779719449</Constant>
				</Apply>
			</DerivedField>
			<DerivedField name="tf-idf@1(0f1d041f5921)" optype="continuous" dataType="double">
				<Apply function="tf-idf@1">
					<FieldRef field="lowercase(x1)"/>
					<Constant dataType="string">0f1d041f5921</Constant>
					<Constant dataType="double">4.167261064593449</Constant>
				</Apply>
			</DerivedField>
			<DerivedField name="tf-idf@1(0f991de8cd9e)" optype="continuous" dataType="double">
				<Apply function="tf-idf@1">
					<FieldRef field="lowercase(x1)"/>
					<Constant dataType="string">0f991de8cd9e</Constant>
					<Constant dataType="double">3.8153685305349314</Constant>
				</Apply>
			</DerivedField>
			<DerivedField name="tf-idf@1(0f991de8cd9e aa5b17d101b3)" optype="continuous" dataType="double">
				<Apply function="tf-idf@1">
					<FieldRef field="lowercase(x1)"/>
					<Constant dataType="string">0f991de8cd9e aa5b17d101b3</Constant>
					<Constant dataType="double">5.107695895396965</Constant>
				</Apply>
			</DerivedField>
			<DerivedField name="tf-idf@1(0fe7bdc0f9e8)" optype="continuous" dataType="double">
				<Apply function="tf-idf@1">
					<FieldRef field="lowercase(x1)"/>
					<Constant dataType="string">0fe7bdc0f9e8</Constant>
					<Constant dataType="double">5.2929543118642295</Constant>
				</Apply>
			</DerivedField>
			<DerivedField name="tf-idf@1(100f56ec899d)" optype="continuous" dataType="double">
				<Apply function="tf-idf@1">
					<FieldRef field="lowercase(x1)"/>
					<Constant dataType="string">100f56ec899d</Constant>
					<Constant dataType="double">4.385170247544402</Constant>
				</Apply>
			</DerivedField>
			<DerivedField name="tf-idf@1(1010cecb0f1b)" optype="continuous" dataType="double">
				<Apply function="tf-idf@1">
					<FieldRef field="lowercase(x1)"/>
					<Constant dataType="string">1010cecb0f1b</Constant>
					<Constant dataType="double">4.988935820092754</Constant>
				</Apply>
			</DerivedField>
			<DerivedField name="tf-idf@1(1015893e384a 557ec6c63cf9)" optype="continuous" dataType="double">
				<Apply function="tf-idf@1">
					<FieldRef field="lowercase(x1)"/>
					<Constant dataType="string">1015893e384a 557ec6c63cf9</Constant>
					<Constant dataType="double">4.5594558357807164</Constant>
				</Apply>
			</DerivedField>
			<DerivedField name="tf-idf@1(1015893e384a 6bff0c8c1185)" optype="continuous" dataType="double">
				<Apply function="tf-idf@1">
					<FieldRef field="lowercase(x1)"/>
					<Constant dataType="string">1015893e384a 6bff0c8c1185</Constant>
					<Constant dataType="double">3.8514478742350726</Constant>
				</Apply>
			</DerivedField>
			<DerivedField name="tf-idf@1(1068682ce752)" optype="continuous" dataType="double">
				<Apply function="tf-idf@1">
					<FieldRef field="lowercase(x1)"/>
					<Constant dataType="string">1068682ce752</Constant>
					<Constant dataType="double">1.903631071176132</Constant>
				</Apply>
			</DerivedField>
			<DerivedField name="tf-idf@1(1068682ce752 1068682ce752)" optype="continuous" dataType="double">
				<Apply function="tf-idf@1">
					<FieldRef field="lowercase(x1)"/>
					<Constant dataType="string">1068682ce752 1068682ce752</Constant>
					<Constant dataType="double">3.5867100132977354</Constant>
				</Apply>
			</DerivedField>
			<DerivedField name="tf-idf@1(106de4332a24)" optype="continuous" dataType="double">
				<Apply function="tf-idf@1">
					<FieldRef field="lowercase(x1)"/>
					<Constant dataType="string">106de4332a24</Constant>
					<Constant dataType="double">3.7751158255459942</Constant>
				</Apply>
			</DerivedField>
			<DerivedField name="tf-idf@1(10e45001c2f2)" optype="continuous" dataType="double">
				<Apply function="tf-idf@1">
					<FieldRef field="lowercase(x1)"/>
					<Constant dataType="string">10e45001c2f2</Constant>
					<Constant dataType="double">1.6164749515297314</Constant>
				</Apply>
			</DerivedField>
			<DerivedField name="tf-idf@1(1160c83555d2)" optype="continuous" dataType="double">
				<Apply function="tf-idf@1">
					<FieldRef field="lowercase(x1)"/>
					<Constant dataType="string">1160c83555d2</Constant>
					<Constant dataType="double">4.467747409291217</Constant>
				</Apply>
			</DerivedField>
			<DerivedField name="tf-idf@1(11d62d3598ce)" optype="continuous" dataType="double">
				<Apply function="tf-idf@1">
					<FieldRef field="lowercase(x1)"/>
					<Constant dataType="string">11d62d3598ce</Constant>
					<Constant dataType="double">2.7841205265110833</Constant>
				</Apply>
			</DerivedField>
			<DerivedField name="tf-idf@1(11d62d3598ce 586242498a88)" optype="continuous" dataType="double">
				<Apply function="tf-idf@1">
					<FieldRef field="lowercase(x1)"/>
					<Constant dataType="string">11d62d3598ce 586242498a88</Constant>
					<Constant dataType="double">5.581421005776428</Constant>
				</Apply>
			</DerivedField>
			<DerivedField name="tf-idf@1(132a682c6a03)" optype="continuous" dataType="double">
				<Apply function="tf-idf@1">
					<FieldRef field="lowercase(x1)"/>
					<Constant dataType="string">132a682c6a03</Constant>
					<Constant dataType="double">4.4253596309412355</Constant>
				</Apply>
			</DerivedField>
			<DerivedField name="tf-idf@1(132a682c6a03 5a35c269cc03)" optype="continuous" dataType="double">
				<Apply function="tf-idf@1">
					<FieldRef field="lowercase(x1)"/>
					<Constant dataType="string">132a682c6a03 5a35c269cc03</Constant>
					<Constant dataType="double">5.084506450478054</Constant>
				</Apply>
			</DerivedField>
			<DerivedField name="tf-idf@1(133d46f7ed38 0f12fd1c2b99)" optype="continuous" dataType="double">
				<Apply function="tf-idf@1">
					<FieldRef field="lowercase(x1)"/>
					<Constant dataType="string">133d46f7ed38 0f12fd1c2b99</Constant>
					<Constant dataType="double">4.835529464825354</Constant>
				</Apply>
			</DerivedField>
			<DerivedField name="tf-idf@1(133d46f7ed38 96e70b2e2fc0)" optype="continuous" dataType="double">
				<Apply function="tf-idf@1">
					<FieldRef field="lowercase(x1)"/>
					<Constant dataType="string">133d46f7ed38 96e70b2e2fc0</Constant>
					<Constant dataType="double">4.837019778066913</Constant>
				</Apply>
			</DerivedField>
			<DerivedField name="tf-idf@1(135b0b46a532)" optype="continuous" dataType="double">
				<Apply function="tf-idf@1">
					<FieldRef field="lowercase(x1)"/>
					<Constant dataType="string">135b0b46a532</Constant>
					<Constant dataType="double">4.400474228683793</Constant>
				</Apply>
			</DerivedField>
			<DerivedField name="tf-idf@1(13ab228a9918)" optype="continuous" dataType="double">
				<Apply function="tf-idf@1">
					<FieldRef field="lowercase(x1)"/>
					<Constant dataType="string">13ab228a9918</Constant>
					<Constant dataType="double">4.761634258629881</Constant>
				</Apply>
			</DerivedField>
			<DerivedField name="tf-idf@1(1417bc08c137)" optype="continuous" dataType="double">
				<Apply function="tf-idf@1">
					<FieldRef field="lowercase(x1)"/>
					<Constant dataType="string">1417bc08c137</Constant>
					<Constant dataType="double">4.815624642526421</Constant>
				</Apply>
			</DerivedField>
			<DerivedField name="tf-idf@1(142d16db61dd)" optype="continuous" dataType="double">
				<Apply function="tf-idf@1">
					<FieldRef field="lowercase(x1)"/>
					<Constant dataType="string">142d16db61dd</Constant>
					<Constant dataType="double">4.094762893472218</Constant>
				</Apply>
			</DerivedField>
			<DerivedField name="tf-idf@1(1450168c4ac2)" optype="continuous" dataType="double">
				<Apply function="tf-idf@1">
					<FieldRef field="lowercase(x1)"/>
					<Constant dataType="string">1450168c4ac2</Constant>
					<Constant dataType="double">3.5655765133303214</Constant>
				</Apply>
			</DerivedField>
			<DerivedField name="tf-idf@1(1450168c4ac2 22b937b93ed2)" optype="continuous" dataType="double">
				<Apply function="tf-idf@1">
					<FieldRef field="lowercase(x1)"/>
					<Constant dataType="string">1450168c4ac2 22b937b93ed2</Constant>
					<Constant dataType="double">4.100101934451639</Constant>
				</Apply>
			</DerivedField>
			<DerivedField name="tf-idf@1(14deb85fa108)" optype="continuous" dataType="double">
				<Apply function="tf-idf@1">
					<FieldRef field="lowercase(x1)"/>
					<Constant dataType="string">14deb85fa108</Constant>
					<Constant dataType="double">5.431540475150376</Constant>
				</Apply>
			</DerivedField>
			<DerivedField name="tf-idf@1(14eb1c1f5593)" optype="continuous" dataType="double">
				<Apply function="tf-idf@1">
					<FieldRef field="lowercase(x1)"/>
					<Constant dataType="string">14eb1c1f5593</Constant>
					<Constant dataType="double">3.6802276955029107</Constant>
				</Apply>
			</DerivedField>
			<DerivedField name="tf-idf@1(152937e52656)" optype="continuous" dataType="double">
				<Apply function="tf-idf@1">
					<FieldRef field="lowercase(x1)"/>
					<Constant dataType="string">152937e52656</Constant>
					<Constant dataType="double">3.324280032854667</Constant>
				</Apply>
			</DerivedField>
			<DerivedField name="tf-idf@1(1641a72fa752)" optype="continuous" dataType="double">
				<Apply function="tf-idf@1">
					<FieldRef field="lowercase(x1)"/>
					<Constant dataType="string">1641a72fa752</Constant>
					<Constant dataType="double">3.8483910426203627</Constant>
				</Apply>
			</DerivedField>
			<DerivedField name="tf-idf@1(164bd5d23a02)" optype="continuous" dataType="double">
				<Apply function="tf-idf@1">
					<FieldRef field="lowercase(x1)"/>
					<Constant dataType="string">164bd5d23a02</Constant>
					<Constant dataType="double">5.1404857182199555</Constant>
				</Apply>
			</DerivedField>
			<DerivedField name="tf-idf@1(1669ab06727a)" optype="continuous" dataType="double">
				<Apply function="tf-idf@1">
					<FieldRef field="lowercase(x1)"/>
					<Constant dataType="string">1669ab06727a</Constant>
					<Constant dataType="double">2.8230617726406115</Constant>
				</Apply>
			</DerivedField>
			<DerivedField name="tf-idf@1(167018123c55)" optype="continuous" dataType="double">
				<Apply function="tf-idf@1">
					<FieldRef field="lowercase(x1)"/>
					<Constant dataType="string">167018123c55</Constant>
					<Constant dataType="double">3.8955454754057968</Constant>
				</Apply>
			</DerivedField>
			<DerivedField name="tf-idf@1(17593fe7d418)" optype="continuous" dataType="double">
				<Apply function="tf-idf@1">
					<FieldRef field="lowercase(x1)"/>
					<Constant dataType="string">17593fe7d418</Constant>
					<Constant dataType="double">3.717742547392033</Constant>
				</Apply>
			</DerivedField>
			<DerivedField name="tf-idf@1(17593fe7d418 54709b24b45f)" optype="continuous" dataType="double">
				<Apply function="tf-idf@1">
					<FieldRef field="lowercase(x1)"/>
					<Constant dataType="string">17593fe7d418 54709b24b45f</Constant>
					<Constant dataType="double">5.2424848861750775</Constant>
				</Apply>
			</DerivedField>
			<DerivedField name="tf-idf@1(179dce4734b4)" optype="continuous" dataType="double">
				<Apply function="tf-idf@1">
					<FieldRef field="lowercase(x1)"/>
					<Constant dataType="string">179dce4734b4</Constant>
					<Constant dataType="double">3.505911832514313</Constant>
				</Apply>
			</DerivedField>
			<DerivedField name="tf-idf@1(17bc3e95a38f)" optype="continuous" dataType="double">
				<Apply function="tf-idf@1">
					<FieldRef field="lowercase(x1)"/>
					<Constant dataType="string">17bc3e95a38f</Constant>
					<Constant dataType="double">3.7912326287804143</Constant>
				</Apply>
			</DerivedField>
			<DerivedField name="tf-idf@1(17cff84f5862)" optype="continuous" dataType="double">
				<Apply function="tf-idf@1">
					<FieldRef field="lowercase(x1)"/>
					<Constant dataType="string">17cff84f5862</Constant>
					<Constant dataType="double">4.138295338208861</Constant>
				</Apply>
			</DerivedField>
			<DerivedField name="tf-idf@1(1918bab7ef7f)" optype="continuous" dataType="double">
				<Apply function="tf-idf@1">
					<FieldRef field="lowercase(x1)"/>
					<Constant dataType="string">1918bab7ef7f</Constant>
					<Constant dataType="double">2.9152617463833783</Constant>
				</Apply>
			</DerivedField>
			<DerivedField name="tf-idf@1(192707ed58ee)" optype="continuous" dataType="double">
				<Apply function="tf-idf@1">
					<FieldRef field="lowercase(x1)"/>
					<Constant dataType="string">192707ed58ee</Constant>
					<Constant dataType="double">4.8288504047456815</Constant>
				</Apply>
			</DerivedField>
			<DerivedField name="tf-idf@1(19ce59d8cd2f)" optype="continuous" dataType="double">
				<Apply function="tf-idf@1">
					<FieldRef field="lowercase(x1)"/>
					<Constant dataType="string">19ce59d8cd2f</Constant>
					<Constant dataType="double">3.3672468701264355</Constant>
				</Apply>
			</DerivedField>
			<DerivedField name="tf-idf@1(1a0b71f9f7ff)" optype="continuous" dataType="double">
				<Apply function="tf-idf@1">
					<FieldRef field="lowercase(x1)"/>
					<Constant dataType="string">1a0b71f9f7ff</Constant>
					<Constant dataType="double">5.017999953036666</Constant>
				</Apply>
			</DerivedField>
			<DerivedField name="tf-idf@1(1a46ce1e6826)" optype="continuous" dataType="double">
				<Apply function="tf-idf@1">
					<FieldRef field="lowercase(x1)"/>
					<Constant dataType="string">1a46ce1e6826</Constant>
					<Constant dataType="double">5.104767635617876</Constant>
				</Apply>
			</DerivedField>
			<DerivedField name="tf-idf@1(1a4dd36c6de0)" optype="continuous" dataType="double">
				<Apply function="tf-idf@1">
					<FieldRef field="lowercase(x1)"/>
					<Constant dataType="string">1a4dd36c6de0</Constant>
					<Constant dataType="double">4.5571984984790666</Constant>
				</Apply>
			</DerivedField>
			<DerivedField name="tf-idf@1(1a569f565e8a)" optype="continuous" dataType="double">
				<Apply function="tf-idf@1">
					<FieldRef field="lowercase(x1)"/>
					<Constant dataType="string">1a569f565e8a</Constant>
					<Constant dataType="double">4.106187508987206</Constant>
				</Apply>
			</DerivedField>
			<DerivedField name="tf-idf@1(1a6d0db19dc2)" optype="continuous" dataType="double">
				<Apply function="tf-idf@1">
					<FieldRef field="lowercase(x1)"/>
					<Constant dataType="string">1a6d0db19dc2</Constant>
					<Constant dataType="double">5.003802731433089</Constant>
				</Apply>
			</DerivedField>
			<DerivedField name="tf-idf@1(1a78854062fa)" optype="continuous" dataType="double">
				<Apply function="tf-idf@1">
					<FieldRef field="lowercase(x1)"/>
					<Constant dataType="string">1a78854062fa</Constant>
					<Constant dataType="double">4.151357662393535</Constant>
				</Apply>
			</DerivedField>
			<DerivedField name="tf-idf@1(1a78854062fa d38820625542)" optype="continuous" dataType="double">
				<Apply function="tf-idf@1">
					<FieldRef field="lowercase(x1)"/>
					<Constant dataType="string">1a78854062fa d38820625542</Constant>
					<Constant dataType="double">5.428841418181211</Constant>
				</Apply>
			</DerivedField>
			<DerivedField name="tf-idf@1(1a8ac9f8f32f)" optype="continuous" dataType="double">
				<Apply function="tf-idf@1">
					<FieldRef field="lowercase(x1)"/>
					<Constant dataType="string">1a8ac9f8f32f</Constant>
					<Constant dataType="double">4.089805376236692</Constant>
				</Apply>
			</DerivedField>
			<DerivedField name="tf-idf@1(1ab34730c1e0)" optype="continuous" dataType="double">
				<Apply function="tf-idf@1">
					<FieldRef field="lowercase(x1)"/>
					<Constant dataType="string">1ab34730c1e0</Constant>
					<Constant dataType="double">1.8673895737537793</Constant>
				</Apply>
			</DerivedField>
			<DerivedField name="tf-idf@1(1ad95db6525c)" optype="continuous" dataType="double">
				<Apply function="tf-idf@1">
					<FieldRef field="lowercase(x1)"/>
					<Constant dataType="string">1ad95db6525c</Constant>
					<Constant dataType="double">4.092281062735459</Constant>
				</Apply>
			</DerivedField>
			<DerivedField name="tf-idf@1(1b398b5b9d07)" optype="continuous" dataType="double">
				<Apply function="tf-idf@1">
					<FieldRef field="lowercase(x1)"/>
					<Constant dataType="string">1b398b5b9d07</Constant>
					<Constant dataType="double">3.8226432494015214</Constant>
				</Apply>
			</DerivedField>
			<DerivedField name="tf-idf@1(1b6c95839a6d)" optype="continuous" dataType="double">
				<Apply function="tf-idf@1">
					<FieldRef field="lowercase(x1)"/>
					<Constant dataType="string">1b6c95839a6d</Constant>
					<Constant dataType="double">3.8012406132871366</Constant>
				</Apply>
			</DerivedField>
			<DerivedField name="tf-idf@1(1b6d0614f2c7 641356219cbc)" optype="continuous" dataType="double">
				<Apply function="tf-idf@1">
					<FieldRef field="lowercase(x1)"/>
					<Constant dataType="string">1b6d0614f2c7 641356219cbc</Constant>
					<Constant dataType="double">4.502893958904503</Constant>
				</Apply>
			</DerivedField>
			<DerivedField name="tf-idf@1(1bc9af75e7f4)" optype="continuous" dataType="double">
				<Apply function="tf-idf@1">
					<FieldRef field="lowercase(x1)"/>
					<Constant dataType="string">1bc9af75e7f4</Constant>
					<Constant dataType="double">4.6236177799980025</Constant>
				</Apply>
			</DerivedField>
			<DerivedField name="tf-idf@1(1ca4a808cfaa)" optype="continuous" dataType="double">
				<Apply function="tf-idf@1">
					<FieldRef field="lowercase(x1)"/>
					<Constant dataType="string">1ca4a808cfaa</Constant>
					<Constant dataType="double">5.023376310073046</Constant>
				</Apply>
			</DerivedField>
			<DerivedField name="tf-idf@1(1d4249bb404a)" optype="continuous" dataType="double">
				<Apply function="tf-idf@1">
					<FieldRef field="lowercase(x1)"/>
					<Constant dataType="string">1d4249bb404a</Constant>
					<Constant dataType="double">2.568490533925216</Constant>
				</Apply>
			</DerivedField>
			<DerivedField name="tf-idf@1(1fe62f2b2bff d1cdc70d1aa6)" optype="continuous" dataType="double">
				<Apply function="tf-idf@1">
					<FieldRef field="lowercase(x1)"/>
					<Constant dataType="string">1fe62f2b2bff d1cdc70d1aa6</Constant>
					<Constant dataType="double">4.822950682618494</Constant>
				</Apply>
			</DerivedField>
			<DerivedField name="tf-idf@1(20127286030f)" optype="continuous" dataType="double">
				<Apply function="tf-idf@1">
					<FieldRef field="lowercase(x1)"/>
					<Constant dataType="string">20127286030f</Constant>
					<Constant dataType="double">3.8379024010610383</Constant>
				</Apply>
			</DerivedField>
			<DerivedField name="tf-idf@1(201db68a75d7)" optype="continuous" dataType="double">
				<Apply function="tf-idf@1">
					<FieldRef field="lowercase(x1)"/>
					<Constant dataType="string">201db68a75d7</Constant>
					<Constant dataType="double">5.508771823086366</Constant>
				</Apply>
			</DerivedField>
			<DerivedField name="tf-idf@1(214e5bbe28d6)" optype="continuous" dataType="double">
				<Apply function="tf-idf@1">
					<FieldRef field="lowercase(x1)"/>
					<Constant dataType="string">214e5bbe28d6</Constant>
					<Constant dataType="double">4.5605864181510025</Constant>
				</Apply>
			</DerivedField>
			<DerivedField name="tf-idf@1(21e314d3afcc)" optype="continuous" dataType="double">
				<Apply function="tf-idf@1">
					<FieldRef field="lowercase(x1)"/>
					<Constant dataType="string">21e314d3afcc</Constant>
					<Constant dataType="double">1.6331705319580654</Constant>
				</Apply>
			</DerivedField>
			<DerivedField name="tf-idf@1(21e314d3afcc 25c57acdf805)" optype="continuous" dataType="double">
				<Apply function="tf-idf@1">
					<FieldRef field="lowercase(x1)"/>
					<Constant dataType="string">21e314d3afcc 25c57acdf805</Constant>
					<Constant dataType="double">4.473433648442862</Constant>
				</Apply>
			</DerivedField>
			<DerivedField name="tf-idf@1(21e314d3afcc 641356219cbc)" optype="continuous" dataType="double">
				<Apply function="tf-idf@1">
					<FieldRef field="lowercase(x1)"/>
					<Constant dataType="string">21e314d3afcc 641356219cbc</Constant>
					<Constant dataType="double">3.630366006987719</Constant>
				</Apply>
			</DerivedField>
			<DerivedField name="tf-idf@1(21e314d3afcc d19b1c129f40)" optype="continuous" dataType="double">
				<Apply function="tf-idf@1">
					<FieldRef field="lowercase(x1)"/>
					<Constant dataType="string">21e314d3afcc d19b1c129f40</Constant>
					<Constant dataType="double">4.718988202580743</Constant>
				</Apply>
			</DerivedField>
			<DerivedField name="tf-idf@1(21e314d3afcc f95d0bea231b)" optype="continuous" dataType="double">
				<Apply function="tf-idf@1">
					<FieldRef field="lowercase(x1)"/>
					<Constant dataType="string">21e314d3afcc f95d0bea231b</Constant>
					<Constant dataType="double">4.098319084986709</Constant>
				</Apply>
			</DerivedField>
			<DerivedField name="tf-idf@1(223e7af4a080)" optype="continuous" dataType="double">
				<Apply function="tf-idf@1">
					<FieldRef field="lowercase(x1)"/>
					<Constant dataType="string">223e7af4a080</Constant>
					<Constant dataType="double">4.651719812518698</Constant>
				</Apply>
			</DerivedField>
			<DerivedField name="tf-idf@1(2272194f2c48)" optype="continuous" dataType="double">
				<Apply function="tf-idf@1">
					<FieldRef field="lowercase(x1)"/>
					<Constant dataType="string">2272194f2c48</Constant>
					<Constant dataType="double">5.233576141285968</Constant>
				</Apply>
			</DerivedField>
			<DerivedField name="tf-idf@1(22b937b93ed2)" optype="continuous" dataType="double">
				<Apply function="tf-idf@1">
					<FieldRef field="lowercase(x1)"/>
					<Constant dataType="string">22b937b93ed2</Constant>
					<Constant dataType="double">3.8073470971503562</Constant>
				</Apply>
			</DerivedField>
			<DerivedField name="tf-idf@1(22b937b93ed2 f6f466726339)" optype="continuous" dataType="double">
				<Apply function="tf-idf@1">
					<FieldRef field="lowercase(x1)"/>
					<Constant dataType="string">22b937b93ed2 f6f466726339</Constant>
					<Constant dataType="double">3.9383327506110057</Constant>
				</Apply>
			</DerivedField>
			<DerivedField name="tf-idf@1(22d121961b05)" optype="continuous" dataType="double">
				<Apply function="tf-idf@1">
					<FieldRef field="lowercase(x1)"/>
					<Constant dataType="string">22d121961b05</Constant>
					<Constant dataType="double">4.320839389163263</Constant>
				</Apply>
			</DerivedField>
			<DerivedField name="tf-idf@1(22d6fd31d92b)" optype="continuous" dataType="double">
				<Apply function="tf-idf@1">
					<FieldRef field="lowercase(x1)"/>
					<Constant dataType="string">22d6fd31d92b</Constant>
					<Constant dataType="double">3.287982798822881</Constant>
				</Apply>
			</DerivedField>
			<DerivedField name="tf-idf@1(22d6fd31d92b df7b799d2534)" optype="continuous" dataType="double">
				<Apply function="tf-idf@1">
					<FieldRef field="lowercase(x1)"/>
					<Constant dataType="string">22d6fd31d92b df7b799d2534</Constant>
					<Constant dataType="double">5.10087658012491</Constant>
				</Apply>
			</DerivedField>
			<DerivedField name="tf-idf@1(23344d9339f0)" optype="continuous" dataType="double">
				<Apply function="tf-idf@1">
					<FieldRef field="lowercase(x1)"/>
					<Constant dataType="string">23344d9339f0</Constant>
					<Constant dataType="double">4.385170247544402</Constant>
				</Apply>
			</DerivedField>
			<DerivedField name="tf-idf@1(2335b0486132)" optype="continuous" dataType="double">
				<Apply function="tf-idf@1">
					<FieldRef field="lowercase(x1)"/>
					<Constant dataType="string">2335b0486132</Constant>
					<Constant dataType="double">4.7513142495978915</Constant>
				</Apply>
			</DerivedField>
			<DerivedField name="tf-idf@1(23ecccc83abc)" optype="continuous" dataType="double">
				<Apply function="tf-idf@1">
					<FieldRef field="lowercase(x1)"/>
					<Constant dataType="string">23ecccc83abc</Constant>
					<Constant dataType="double">5.063711750323546</Constant>
				</Apply>
			</DerivedField>
			<DerivedField name="tf-idf@1(246ee0c4577b)" optype="continuous" dataType="double">
				<Apply function="tf-idf@1">
					<FieldRef field="lowercase(x1)"/>
					<Constant dataType="string">246ee0c4577b</Constant>
					<Constant dataType="double">4.122112565045805</Constant>
				</Apply>
			</DerivedField>
			<DerivedField name="tf-idf@1(24d1ab9d7766)" optype="continuous" dataType="double">
				<Apply function="tf-idf@1">
					<FieldRef field="lowercase(x1)"/>
					<Constant dataType="string">24d1ab9d7766</Constant>
					<Constant dataType="double">3.9694744686338095</Constant>
				</Apply>
			</DerivedField>
			<DerivedField name="tf-idf@1(2519927ae3fa)" optype="continuous" dataType="double">
				<Apply function="tf-idf@1">
					<FieldRef field="lowercase(x1)"/>
					<Constant dataType="string">2519927ae3fa</Constant>
					<Constant dataType="double">3.7821025275336826</Constant>
				</Apply>
			</DerivedField>
			<DerivedField name="tf-idf@1(2519927ae3fa 74586e35c44a)" optype="continuous" dataType="double">
				<Apply function="tf-idf@1">
					<FieldRef field="lowercase(x1)"/>
					<Constant dataType="string">2519927ae3fa 74586e35c44a</Constant>
					<Constant dataType="double">4.791110076762835</Constant>
				</Apply>
			</DerivedField>
			<DerivedField name="tf-idf@1(25c57acdf805)" optype="continuous" dataType="double">
				<Apply function="tf-idf@1">
					<FieldRef field="lowercase(x1)"/>
					<Constant dataType="string">25c57acdf805</Constant>
					<Constant dataType="double">1.7115618156913563</Constant>
				</Apply>
			</DerivedField>
			<DerivedField name="tf-idf@1(25c57acdf805 25c57acdf805)" optype="continuous" dataType="double">
				<Apply function="tf-idf@1">
					<FieldRef field="lowercase(x1)"/>
					<Constant dataType="string">25c57acdf805 25c57acdf805</Constant>
					<Constant dataType="double">4.198665079643913</Constant>
				</Apply>
			</DerivedField>
			<DerivedField name="tf-idf@1(25c57acdf805 641356219cbc)" optype="continuous" dataType="double">
				<Apply function="tf-idf@1">
					<FieldRef field="lowercase(x1)"/>
					<Constant dataType="string">25c57acdf805 641356219cbc</Constant>
					<Constant dataType="double">4.111949138177629</Constant>
				</Apply>
			</DerivedField>
			<DerivedField name="tf-idf@1(26a82297d6a4)" optype="continuous" dataType="double">
				<Apply function="tf-idf@1">
					<FieldRef field="lowercase(x1)"/>
					<Constant dataType="string">26a82297d6a4</Constant>
					<Constant dataType="double">5.063711750323546</Constant>
				</Apply>
			</DerivedField>
			<DerivedField name="tf-idf@1(26eec2a96b52)" optype="continuous" dataType="double">
				<Apply function="tf-idf@1">
					<FieldRef field="lowercase(x1)"/>
					<Constant dataType="string">26eec2a96b52</Constant>
					<Constant dataType="double">4.8688406446779915</Constant>
				</Apply>
			</DerivedField>
			<DerivedField name="tf-idf@1(26f7353edc2e)" optype="continuous" dataType="double">
				<Apply function="tf-idf@1">
					<FieldRef field="lowercase(x1)"/>
					<Constant dataType="string">26f7353edc2e</Constant>
					<Constant dataType="double">4.12540144065791</Constant>
				</Apply>
			</DerivedField>
			<DerivedField name="tf-idf@1(26f768da5068)" optype="continuous" dataType="double">
				<Apply function="tf-idf@1">
					<FieldRef field="lowercase(x1)"/>
					<Constant dataType="string">26f768da5068</Constant>
					<Constant dataType="double">1.8342282145619302</Constant>
				</Apply>
			</DerivedField>
			<DerivedField name="tf-idf@1(26f768da5068 6af770640118)" optype="continuous" dataType="double">
				<Apply function="tf-idf@1">
					<FieldRef field="lowercase(x1)"/>
					<Constant dataType="string">26f768da5068 6af770640118</Constant>
					<Constant dataType="double">2.117600200912801</Constant>
				</Apply>
			</DerivedField>
			<DerivedField name="tf-idf@1(27143f7f5d10)" optype="continuous" dataType="double">
				<Apply function="tf-idf@1">
					<FieldRef field="lowercase(x1)"/>
					<Constant dataType="string">27143f7f5d10</Constant>
					<Constant dataType="double">4.736368319210659</Constant>
				</Apply>
			</DerivedField>
			<DerivedField name="tf-idf@1(272f6f99f56d)" optype="continuous" dataType="double">
				<Apply function="tf-idf@1">
					<FieldRef field="lowercase(x1)"/>
					<Constant dataType="string">272f6f99f56d</Constant>
					<Constant dataType="double">4.728978295655828</Constant>
				</Apply>
			</DerivedField>
			<DerivedField name="tf-idf@1(273c2c0d5332)" optype="continuous" dataType="double">
				<Apply function="tf-idf@1">
					<FieldRef field="lowercase(x1)"/>
					<Constant dataType="string">273c2c0d5332</Constant>
					<Constant dataType="double">4.8558385494633285</Constant>
				</Apply>
			</DerivedField>
			<DerivedField name="tf-idf@1(2784a2673880)" optype="continuous" dataType="double">
				<Apply function="tf-idf@1">
					<FieldRef field="lowercase(x1)"/>
					<Constant dataType="string">2784a2673880</Constant>
					<Constant dataType="double">4.090865634332128</Constant>
				</Apply>
			</DerivedField>
			<DerivedField name="tf-idf@1(28439f5ac34b)" optype="continuous" dataType="double">
				<Apply function="tf-idf@1">
					<FieldRef field="lowercase(x1)"/>
					<Constant dataType="string">28439f5ac34b</Constant>
					<Constant dataType="double">4.310215119243033</Constant>
				</Apply>
			</DerivedField>
			<DerivedField name="tf-idf@1(288ccf089872)" optype="continuous" dataType="double">
				<Apply function="tf-idf@1">
					<FieldRef field="lowercase(x1)"/>
					<Constant dataType="string">288ccf089872</Constant>
					<Constant dataType="double">2.8301529384350843</Constant>
				</Apply>
			</DerivedField>
			<DerivedField name="tf-idf@1(288ccf089872 e137a75c0b90)" optype="continuous" dataType="double">
				<Apply function="tf-idf@1">
					<FieldRef field="lowercase(x1)"/>
					<Constant dataType="string">288ccf089872 e137a75c0b90</Constant>
					<Constant dataType="double">5.397008491608</Constant>
				</Apply>
			</DerivedField>
			<DerivedField name="tf-idf@1(28b12e45914e)" optype="continuous" dataType="double">
				<Apply function="tf-idf@1">
					<FieldRef field="lowercase(x1)"/>
					<Constant dataType="string">28b12e45914e</Constant>
					<Constant dataType="double">3.999033270875354</Constant>
				</Apply>
			</DerivedField>
			<DerivedField name="tf-idf@1(28bce73d3237)" optype="continuous" dataType="double">
				<Apply function="tf-idf@1">
					<FieldRef field="lowercase(x1)"/>
					<Constant dataType="string">28bce73d3237</Constant>
					<Constant dataType="double">2.722049870486197</Constant>
				</Apply>
			</DerivedField>
			<DerivedField name="tf-idf@1(28c0852a9d7f)" optype="continuous" dataType="double">
				<Apply function="tf-idf@1">
					<FieldRef field="lowercase(x1)"/>
					<Constant dataType="string">28c0852a9d7f</Constant>
					<Constant dataType="double">4.79182258124613</Constant>
				</Apply>
			</DerivedField>
			<DerivedField name="tf-idf@1(28d593c3c78d)" optype="continuous" dataType="double">
				<Apply function="tf-idf@1">
					<FieldRef field="lowercase(x1)"/>
					<Constant dataType="string">28d593c3c78d</Constant>
					<Constant dataType="double">4.169171284849568</Constant>
				</Apply>
			</DerivedField>
			<DerivedField name="tf-idf@1(28ddf393019c)" optype="continuous" dataType="double">
				<Apply function="tf-idf@1">
					<FieldRef field="lowercase(x1)"/>
					<Constant dataType="string">28ddf393019c</Constant>
					<Constant dataType="double">4.155121310042839</Constant>
				</Apply>
			</DerivedField>
			<DerivedField name="tf-idf@1(291d62e1ee8d)" optype="continuous" dataType="double">
				<Apply function="tf-idf@1">
					<FieldRef field="lowercase(x1)"/>
					<Constant dataType="string">291d62e1ee8d</Constant>
					<Constant dataType="double">5.594059404648151</Constant>
				</Apply>
			</DerivedField>
			<DerivedField name="tf-idf@1(29455ef44c25)" optype="continuous" dataType="double">
				<Apply function="tf-idf@1">
					<FieldRef field="lowercase(x1)"/>
					<Constant dataType="string">29455ef44c25</Constant>
					<Constant dataType="double">3.3300465864403446</Constant>
				</Apply>
			</DerivedField>
			<DerivedField name="tf-idf@1(296e1c47e3cc)" optype="continuous" dataType="double">
				<Apply function="tf-idf@1">
					<FieldRef field="lowercase(x1)"/>
					<Constant dataType="string">296e1c47e3cc</Constant>
					<Constant dataType="double">4.584049583201913</Constant>
				</Apply>
			</DerivedField>
			<DerivedField name="tf-idf@1(299d73abab25)" optype="continuous" dataType="double">
				<Apply function="tf-idf@1">
					<FieldRef field="lowercase(x1)"/>
					<Constant dataType="string">299d73abab25</Constant>
					<Constant dataType="double">3.093509977789697</Constant>
				</Apply>
			</DerivedField>
			<DerivedField name="tf-idf@1(29a67ab1c7dc)" optype="continuous" dataType="double">
				<Apply function="tf-idf@1">
					<FieldRef field="lowercase(x1)"/>
					<Constant dataType="string">29a67ab1c7dc</Constant>
					<Constant dataType="double">3.88139361467294</Constant>
				</Apply>
			</DerivedField>
			<DerivedField name="tf-idf@1(29b171405fb5)" optype="continuous" dataType="double">
				<Apply function="tf-idf@1">
					<FieldRef field="lowercase(x1)"/>
					<Constant dataType="string">29b171405fb5</Constant>
					<Constant dataType="double">4.92586321663768</Constant>
				</Apply>
			</DerivedField>
			<DerivedField name="tf-idf@1(2a6fbe672600)" optype="continuous" dataType="double">
				<Apply function="tf-idf@1">
					<FieldRef field="lowercase(x1)"/>
					<Constant dataType="string">2a6fbe672600</Constant>
					<Constant dataType="double">4.292755051074211</Constant>
				</Apply>
			</DerivedField>
			<DerivedField name="tf-idf@1(2b10180e183f)" optype="continuous" dataType="double">
				<Apply function="tf-idf@1">
					<FieldRef field="lowercase(x1)"/>
					<Constant dataType="string">2b10180e183f</Constant>
					<Constant dataType="double">5.544436821496905</Constant>
				</Apply>
			</DerivedField>
			<DerivedField name="tf-idf@1(2b5eec85d917)" optype="continuous" dataType="double">
				<Apply function="tf-idf@1">
					<FieldRef field="lowercase(x1)"/>
					<Constant dataType="string">2b5eec85d917</Constant>
					<Constant dataType="double">4.5432044273980585</Constant>
				</Apply>
			</DerivedField>
			<DerivedField name="tf-idf@1(2be8ace3819e)" optype="continuous" dataType="double">
				<Apply function="tf-idf@1">
					<FieldRef field="lowercase(x1)"/>
					<Constant dataType="string">2be8ace3819e</Constant>
					<Constant dataType="double">4.781187954256518</Constant>
				</Apply>
			</DerivedField>
			<DerivedField name="tf-idf@1(2ca392db71fd)" optype="continuous" dataType="double">
				<Apply function="tf-idf@1">
					<FieldRef field="lowercase(x1)"/>
					<Constant dataType="string">2ca392db71fd</Constant>
					<Constant dataType="double">4.0664145384679635</Constant>
				</Apply>
			</DerivedField>
			<DerivedField name="tf-idf@1(2d00e7e4d33f)" optype="continuous" dataType="double">
				<Apply function="tf-idf@1">
					<FieldRef field="lowercase(x1)"/>
					<Constant dataType="string">2d00e7e4d33f</Constant>
					<Constant dataType="double">2.5101968784246433</Constant>
				</Apply>
			</DerivedField>
			<DerivedField name="tf-idf@1(2d00e7e4d33f 0cbca93be301)" optype="continuous" dataType="double">
				<Apply function="tf-idf@1">
					<FieldRef field="lowercase(x1)"/>
					<Constant dataType="string">2d00e7e4d33f 0cbca93be301</Constant>
					<Constant dataType="double">5.122467212717278</Constant>
				</Apply>
			</DerivedField>
			<DerivedField name="tf-idf@1(2d04b5e08052)" optype="continuous" dataType="double">
				<Apply function="tf-idf@1">
					<FieldRef field="lowercase(x1)"/>
					<Constant dataType="string">2d04b5e08052</Constant>
					<Constant dataType="double">4.605706853431473</Constant>
				</Apply>
			</DerivedField>
			<DerivedField name="tf-idf@1(2d04b5e08052 b56aab080e2b)" optype="continuous" dataType="double">
				<Apply function="tf-idf@1">
					<FieldRef field="lowercase(x1)"/>
					<Constant dataType="string">2d04b5e08052 b56aab080e2b</Constant>
					<Constant dataType="double">5.17543274829719</Constant>
				</Apply>
			</DerivedField>
			<DerivedField name="tf-idf@1(2d1eaf147aaf)" optype="continuous" dataType="double">
				<Apply function="tf-idf@1">
					<FieldRef field="lowercase(x1)"/>
					<Constant dataType="string">2d1eaf147aaf</Constant>
					<Constant dataType="double">4.16421228174409</Constant>
				</Apply>
			</DerivedField>
			<DerivedField name="tf-idf@1(2d5480d2395c)" optype="continuous" dataType="double">
				<Apply function="tf-idf@1">
					<FieldRef field="lowercase(x1)"/>
					<Constant dataType="string">2d5480d2395c</Constant>
					<Constant dataType="double">4.6679600195415105</Constant>
				</Apply>
			</DerivedField>
			<DerivedField name="tf-idf@1(2dda221075f7)" optype="continuous" dataType="double">
				<Apply function="tf-idf@1">
					<FieldRef field="lowercase(x1)"/>
					<Constant dataType="string">2dda221075f7</Constant>
					<Constant dataType="double">3.907248359116714</Constant>
				</Apply>
			</DerivedField>
			<DerivedField name="tf-idf@1(2dda221075f7 9f5166012ad8)" optype="continuous" dataType="double">
				<Apply function="tf-idf@1">
					<FieldRef field="lowercase(x1)"/>
					<Constant dataType="string">2dda221075f7 9f5166012ad8</Constant>
					<Constant dataType="double">4.24377945562199</Constant>
				</Apply>
			</DerivedField>
			<DerivedField name="tf-idf@1(2e85d01c5d75)" optype="continuous" dataType="double">
				<Apply function="tf-idf@1">
					<FieldRef field="lowercase(x1)"/>
					<Constant dataType="string">2e85d01c5d75</Constant>
					<Constant dataType="double">2.416535656475353</Constant>
				</Apply>
			</DerivedField>
			<DerivedField name="tf-idf@1(2e85d01c5d75 2e85d01c5d75)" optype="continuous" dataType="double">
				<Apply function="tf-idf@1">
					<FieldRef field="lowercase(x1)"/>
					<Constant dataType="string">2e85d01c5d75 2e85d01c5d75</Constant>
					<Constant dataType="double">4.068487078069936</Constant>
				</Apply>
			</DerivedField>
			<DerivedField name="tf-idf@1(2e8ff319ba4a)" optype="continuous" dataType="double">
				<Apply function="tf-idf@1">
					<FieldRef field="lowercase(x1)"/>
					<Constant dataType="string">2e8ff319ba4a</Constant>
					<Constant dataType="double">5.084506450478054</Constant>
				</Apply>
			</DerivedField>
			<DerivedField name="tf-idf@1(2ea49cf89745)" optype="continuous" dataType="double">
				<Apply function="tf-idf@1">
					<FieldRef field="lowercase(x1)"/>
					<Constant dataType="string">2ea49cf89745</Constant>
					<Constant dataType="double">2.474520935684773</Constant>
				</Apply>
			</DerivedField>
			<DerivedField name="tf-idf@1(2eaf68452831)" optype="continuous" dataType="double">
				<Apply function="tf-idf@1">
					<FieldRef field="lowercase(x1)"/>
					<Constant dataType="string">2eaf68452831</Constant>
					<Constant dataType="double">5.510232743726041</Constant>
				</Apply>
			</DerivedField>
			<DerivedField name="tf-idf@1(2ed97f462806)" optype="continuous" dataType="double">
				<Apply function="tf-idf@1">
					<FieldRef field="lowercase(x1)"/>
					<Constant dataType="string">2ed97f462806</Constant>
					<Constant dataType="double">3.5748202766298607</Constant>
				</Apply>
			</DerivedField>
			<DerivedField name="tf-idf@1(2ee1e0de2738)" optype="continuous" dataType="double">
				<Apply function="tf-idf@1">
					<FieldRef field="lowercase(x1)"/>
					<Constant dataType="string">2ee1e0de2738</Constant>
					<Constant dataType="double">2.4189245096352634</Constant>
				</Apply>
			</DerivedField>
			<DerivedField name="tf-idf@1(2f2548bd374a)" optype="continuous" dataType="double">
				<Apply function="tf-idf@1">
					<FieldRef field="lowercase(x1)"/>
					<Constant dataType="string">2f2548bd374a</Constant>
					<Constant dataType="double">2.3364521632725164</Constant>
				</Apply>
			</DerivedField>
			<DerivedField name="tf-idf@1(2fa4ceb0088d)" optype="continuous" dataType="double">
				<Apply function="tf-idf@1">
					<FieldRef field="lowercase(x1)"/>
					<Constant dataType="string">2fa4ceb0088d</Constant>
					<Constant dataType="double">3.4687845984854198</Constant>
				</Apply>
			</DerivedField>
			<DerivedField name="tf-idf@1(3012dd989e4f)" optype="continuous" dataType="double">
				<Apply function="tf-idf@1">
					<FieldRef field="lowercase(x1)"/>
					<Constant dataType="string">3012dd989e4f</Constant>
					<Constant dataType="double">2.670333851497425</Constant>
				</Apply>
			</DerivedField>
			<DerivedField name="tf-idf@1(306fe91e0f51)" optype="continuous" dataType="double">
				<Apply function="tf-idf@1">
					<FieldRef field="lowercase(x1)"/>
					<Constant dataType="string">306fe91e0f51</Constant>
					<Constant dataType="double">4.536004174745667</Constant>
				</Apply>
			</DerivedField>
			<DerivedField name="tf-idf@1(30ca33997a38)" optype="continuous" dataType="double">
				<Apply function="tf-idf@1">
					<FieldRef field="lowercase(x1)"/>
					<Constant dataType="string">30ca33997a38</Constant>
					<Constant dataType="double">2.8753612720434605</Constant>
				</Apply>
			</DerivedField>
			<DerivedField name="tf-idf@1(311be8858444)" optype="continuous" dataType="double">
				<Apply function="tf-idf@1">
					<FieldRef field="lowercase(x1)"/>
					<Constant dataType="string">311be8858444</Constant>
					<Constant dataType="double">4.333829493438279</Constant>
				</Apply>
			</DerivedField>
			<DerivedField name="tf-idf@1(3126398a951c)" optype="continuous" dataType="double">
				<Apply function="tf-idf@1">
					<FieldRef field="lowercase(x1)"/>
					<Constant dataType="string">3126398a951c</Constant>
					<Constant dataType="double">5.045175538415631</Constant>
				</Apply>
			</DerivedField>
			<DerivedField name="tf-idf@1(3144cd07319f)" optype="continuous" dataType="double">
				<Apply function="tf-idf@1">
					<FieldRef field="lowercase(x1)"/>
					<Constant dataType="string">3144cd07319f</Constant>
					<Constant dataType="double">5.524960550436284</Constant>
				</Apply>
			</DerivedField>
			<DerivedField name="tf-idf@1(317714aee69a)" optype="continuous" dataType="double">
				<Apply function="tf-idf@1">
					<FieldRef field="lowercase(x1)"/>
					<Constant dataType="string">317714aee69a</Constant>
					<Constant dataType="double">3.897875121188606</Constant>
				</Apply>
			</DerivedField>
			<DerivedField name="tf-idf@1(31cbd98f4b3c)" optype="continuous" dataType="double">
				<Apply function="tf-idf@1">
					<FieldRef field="lowercase(x1)"/>
					<Constant dataType="string">31cbd98f4b3c</Constant>
					<Constant dataType="double">4.487003794052441</Constant>
				</Apply>
			</DerivedField>
			<DerivedField name="tf-idf@1(31fd3123f41c)" optype="continuous" dataType="double">
				<Apply function="tf-idf@1">
					<FieldRef field="lowercase(x1)"/>
					<Constant dataType="string">31fd3123f41c</Constant>
					<Constant dataType="double">3.5498085517864735</Constant>
				</Apply>
			</DerivedField>
			<DerivedField name="tf-idf@1(31fd3123f41c 33630ee5f812)" optype="continuous" dataType="double">
				<Apply function="tf-idf@1">
					<FieldRef field="lowercase(x1)"/>
					<Constant dataType="string">31fd3123f41c 33630ee5f812</Constant>
					<Constant dataType="double">4.45545217243418</Constant>
				</Apply>
			</DerivedField>
			<DerivedField name="tf-idf@1(32150e5d4311)" optype="continuous" dataType="double">
				<Apply function="tf-idf@1">
					<FieldRef field="lowercase(x1)"/>
					<Constant dataType="string">32150e5d4311</Constant>
					<Constant dataType="double">5.336230295346051</Constant>
				</Apply>
			</DerivedField>
			<DerivedField name="tf-idf@1(321a86f29959)" optype="continuous" dataType="double">
				<Apply function="tf-idf@1">
					<FieldRef field="lowercase(x1)"/>
					<Constant dataType="string">321a86f29959</Constant>
					<Constant dataType="double">4.60511531245001</Constant>
				</Apply>
			</DerivedField>
			<DerivedField name="tf-idf@1(327880382e41)" optype="continuous" dataType="double">
				<Apply function="tf-idf@1">
					<FieldRef field="lowercase(x1)"/>
					<Constant dataType="string">327880382e41</Constant>
					<Constant dataType="double">3.6265802325074192</Constant>
				</Apply>
			</DerivedField>
			<DerivedField name="tf-idf@1(327f094890d6)" optype="continuous" dataType="double">
				<Apply function="tf-idf@1">
					<FieldRef field="lowercase(x1)"/>
					<Constant dataType="string">327f094890d6</Constant>
					<Constant dataType="double">4.4667170124973214</Constant>
				</Apply>
			</DerivedField>
			<DerivedField name="tf-idf@1(32d3e265c75f)" optype="continuous" dataType="double">
				<Apply function="tf-idf@1">
					<FieldRef field="lowercase(x1)"/>
					<Constant dataType="string">32d3e265c75f</Constant>
					<Constant dataType="double">4.4253596309412355</Constant>
				</Apply>
			</DerivedField>
			<DerivedField name="tf-idf@1(33043bd1c2f4)" optype="continuous" dataType="double">
				<Apply function="tf-idf@1">
					<FieldRef field="lowercase(x1)"/>
					<Constant dataType="string">33043bd1c2f4</Constant>
					<Constant dataType="double">4.26123625802615</Constant>
				</Apply>
			</DerivedField>
			<DerivedField name="tf-idf@1(3339d08ee038)" optype="continuous" dataType="double">
				<Apply function="tf-idf@1">
					<FieldRef field="lowercase(x1)"/>
					<Constant dataType="string">3339d08ee038</Constant>
					<Constant dataType="double">4.480717759733845</Constant>
				</Apply>
			</DerivedField>
			<DerivedField name="tf-idf@1(33630ee5f812)" optype="continuous" dataType="double">
				<Apply function="tf-idf@1">
					<FieldRef field="lowercase(x1)"/>
					<Constant dataType="string">33630ee5f812</Constant>
					<Constant dataType="double">3.821832328962435</Constant>
				</Apply>
			</DerivedField>
			<DerivedField name="tf-idf@1(3397db22bc41)" optype="continuous" dataType="double">
				<Apply function="tf-idf@1">
					<FieldRef field="lowercase(x1)"/>
					<Constant dataType="string">3397db22bc41</Constant>
					<Constant dataType="double">3.8926410295650076</Constant>
				</Apply>
			</DerivedField>
			<DerivedField name="tf-idf@1(347a5d991fe1)" optype="continuous" dataType="double">
				<Apply function="tf-idf@1">
					<FieldRef field="lowercase(x1)"/>
					<Constant dataType="string">347a5d991fe1</Constant>
					<Constant dataType="double">3.876244861879901</Constant>
				</Apply>
			</DerivedField>
			<DerivedField name="tf-idf@1(35047bad535e)" optype="continuous" dataType="double">
				<Apply function="tf-idf@1">
					<FieldRef field="lowercase(x1)"/>
					<Constant dataType="string">35047bad535e</Constant>
					<Constant dataType="double">4.344253335839319</Constant>
				</Apply>
			</DerivedField>
			<DerivedField name="tf-idf@1(352b606b6d66)" optype="continuous" dataType="double">
				<Apply function="tf-idf@1">
					<FieldRef field="lowercase(x1)"/>
					<Constant dataType="string">352b606b6d66</Constant>
					<Constant dataType="double">4.936514689729147</Constant>
				</Apply>
			</DerivedField>
			<DerivedField name="tf-idf@1(3540f4612edb)" optype="continuous" dataType="double">
				<Apply function="tf-idf@1">
					<FieldRef field="lowercase(x1)"/>
					<Constant dataType="string">3540f4612edb</Constant>
					<Constant dataType="double">4.367295829986475</Constant>
				</Apply>
			</DerivedField>
			<DerivedField name="tf-idf@1(354a33176953)" optype="continuous" dataType="double">
				<Apply function="tf-idf@1">
					<FieldRef field="lowercase(x1)"/>
					<Constant dataType="string">354a33176953</Constant>
					<Constant dataType="double">4.152485270105572</Constant>
				</Apply>
			</DerivedField>
			<DerivedField name="tf-idf@1(3581a9cce110)" optype="continuous" dataType="double">
				<Apply function="tf-idf@1">
					<FieldRef field="lowercase(x1)"/>
					<Constant dataType="string">3581a9cce110</Constant>
					<Constant dataType="double">5.43289274040039</Constant>
				</Apply>
			</DerivedField>
			<DerivedField name="tf-idf@1(35991d8609e2)" optype="continuous" dataType="double">
				<Apply function="tf-idf@1">
					<FieldRef field="lowercase(x1)"/>
					<Constant dataType="string">35991d8609e2</Constant>
					<Constant dataType="double">3.3143085566901047</Constant>
				</Apply>
			</DerivedField>
			<DerivedField name="tf-idf@1(360e8b28421c)" optype="continuous" dataType="double">
				<Apply function="tf-idf@1">
					<FieldRef field="lowercase(x1)"/>
					<Constant dataType="string">360e8b28421c</Constant>
					<Constant dataType="double">2.619292596386617</Constant>
				</Apply>
			</DerivedField>
			<DerivedField name="tf-idf@1(365a9390d225)" optype="continuous" dataType="double">
				<Apply function="tf-idf@1">
					<FieldRef field="lowercase(x1)"/>
					<Constant dataType="string">365a9390d225</Constant>
					<Constant dataType="double">2.4543575605075167</Constant>
				</Apply>
			</DerivedField>
			<DerivedField name="tf-idf@1(365a9390d225 288ccf089872)" optype="continuous" dataType="double">
				<Apply function="tf-idf@1">
					<FieldRef field="lowercase(x1)"/>
					<Constant dataType="string">365a9390d225 288ccf089872</Constant>
					<Constant dataType="double">5.211645437791997</Constant>
				</Apply>
			</DerivedField>
			<DerivedField name="tf-idf@1(36c91f5337ff)" optype="continuous" dataType="double">
				<Apply function="tf-idf@1">
					<FieldRef field="lowercase(x1)"/>
					<Constant dataType="string">36c91f5337ff</Constant>
					<Constant dataType="double">5.128437379703781</Constant>
				</Apply>
			</DerivedField>
			<DerivedField name="tf-idf@1(36c91f5337ff 6ef2ade170d9)" optype="continuous" dataType="double">
				<Apply function="tf-idf@1">
					<FieldRef field="lowercase(x1)"/>
					<Constant dataType="string">36c91f5337ff 6ef2ade170d9</Constant>
					<Constant dataType="double">5.156779357706056</Constant>
				</Apply>
			</DerivedField>
			<DerivedField name="tf-idf@1(36d909566e5c)" optype="continuous" dataType="double">
				<Apply function="tf-idf@1">
					<FieldRef field="lowercase(x1)"/>
					<Constant dataType="string">36d909566e5c</Constant>
					<Constant dataType="double">4.337442866836793</Constant>
				</Apply>
			</DerivedField>
			<DerivedField name="tf-idf@1(36e7aa72ffe1)" optype="continuous" dataType="double">
				<Apply function="tf-idf@1">
					<FieldRef field="lowercase(x1)"/>
					<Constant dataType="string">36e7aa72ffe1</Constant>
					<Constant dataType="double">2.0977927547923665</Constant>
				</Apply>
			</DerivedField>
			<DerivedField name="tf-idf@1(36e7aa72ffe1 21e314d3afcc)" optype="continuous" dataType="double">
				<Apply function="tf-idf@1">
					<FieldRef field="lowercase(x1)"/>
					<Constant dataType="string">36e7aa72ffe1 21e314d3afcc</Constant>
					<Constant dataType="double">4.0845208826987935</Constant>
				</Apply>
			</DerivedField>
			<DerivedField name="tf-idf@1(377a21b394dc)" optype="continuous" dataType="double">
				<Apply function="tf-idf@1">
					<FieldRef field="lowercase(x1)"/>
					<Constant dataType="string">377a21b394dc</Constant>
					<Constant dataType="double">2.9535268974604105</Constant>
				</Apply>
			</DerivedField>
			<DerivedField name="tf-idf@1(37ac79620fc6)" optype="continuous" dataType="double">
				<Apply function="tf-idf@1">
					<FieldRef field="lowercase(x1)"/>
					<Constant dataType="string">37ac79620fc6</Constant>
					<Constant dataType="double">3.2561746916266556</Constant>
				</Apply>
			</DerivedField>
			<DerivedField name="tf-idf@1(382618e9d034)" optype="continuous" dataType="double">
				<Apply function="tf-idf@1">
					<FieldRef field="lowercase(x1)"/>
					<Constant dataType="string">382618e9d034</Constant>
					<Constant dataType="double">3.517603236864338</Constant>
				</Apply>
			</DerivedField>
			<DerivedField name="tf-idf@1(388cbcf48919)" optype="continuous" dataType="double">
				<Apply function="tf-idf@1">
					<FieldRef field="lowercase(x1)"/>
					<Constant dataType="string">388cbcf48919</Constant>
					<Constant dataType="double">4.090865634332128</Constant>
				</Apply>
			</DerivedField>
			<DerivedField name="tf-idf@1(38ab8a760603)" optype="continuous" dataType="double">
				<Apply function="tf-idf@1">
					<FieldRef field="lowercase(x1)"/>
					<Constant dataType="string">38ab8a760603</Constant>
					<Constant dataType="double">4.12393838260615</Constant>
				</Apply>
			</DerivedField>
			<DerivedField name="tf-idf@1(395a5e8185f8)" optype="continuous" dataType="double">
				<Apply function="tf-idf@1">
					<FieldRef field="lowercase(x1)"/>
					<Constant dataType="string">395a5e8185f8</Constant>
					<Constant dataType="double">2.863995736008762</Constant>
				</Apply>
			</DerivedField>
			<DerivedField name="tf-idf@1(395a5e8185f8 07b4174549d4)" optype="continuous" dataType="double">
				<Apply function="tf-idf@1">
					<FieldRef field="lowercase(x1)"/>
					<Constant dataType="string">395a5e8185f8 07b4174549d4</Constant>
					<Constant dataType="double">4.028163132866858</Constant>
				</Apply>
			</DerivedField>
			<DerivedField name="tf-idf@1(395a5e8185f8 5e142241e482)" optype="continuous" dataType="double">
				<Apply function="tf-idf@1">
					<FieldRef field="lowercase(x1)"/>
					<Constant dataType="string">395a5e8185f8 5e142241e482</Constant>
					<Constant dataType="double">5.101847925514542</Constant>
				</Apply>
			</DerivedField>
			<DerivedField name="tf-idf@1(3a29db408753)" optype="continuous" dataType="double">
				<Apply function="tf-idf@1">
					<FieldRef field="lowercase(x1)"/>
					<Constant dataType="string">3a29db408753</Constant>
					<Constant dataType="double">4.01038781297828</Constant>
				</Apply>
			</DerivedField>
			<DerivedField name="tf-idf@1(3b952c633ee4)" optype="continuous" dataType="double">
				<Apply function="tf-idf@1">
					<FieldRef field="lowercase(x1)"/>
					<Constant dataType="string">3b952c633ee4</Constant>
					<Constant dataType="double">3.7211571848561884</Constant>
				</Apply>
			</DerivedField>
			<DerivedField name="tf-idf@1(3bf2531eae08)" optype="continuous" dataType="double">
				<Apply function="tf-idf@1">
					<FieldRef field="lowercase(x1)"/>
					<Constant dataType="string">3bf2531eae08</Constant>
					<Constant dataType="double">4.801131635223854</Constant>
				</Apply>
			</DerivedField>
			<DerivedField name="tf-idf@1(3bf369e20c6d)" optype="continuous" dataType="double">
				<Apply function="tf-idf@1">
					<FieldRef field="lowercase(x1)"/>
					<Constant dataType="string">3bf369e20c6d</Constant>
					<Constant dataType="double">4.231494288827412</Constant>
				</Apply>
			</DerivedField>
			<DerivedField name="tf-idf@1(3bfb91f64987)" optype="continuous" dataType="double">
				<Apply function="tf-idf@1">
					<FieldRef field="lowercase(x1)"/>
					<Constant dataType="string">3bfb91f64987</Constant>
					<Constant dataType="double">5.568940344552819</Constant>
				</Apply>
			</DerivedField>
			<DerivedField name="tf-idf@1(3cb4a40c2b29)" optype="continuous" dataType="double">
				<Apply function="tf-idf@1">
					<FieldRef field="lowercase(x1)"/>
					<Constant dataType="string">3cb4a40c2b29</Constant>
					<Constant dataType="double">3.873680392601549</Constant>
				</Apply>
			</DerivedField>
			<DerivedField name="tf-idf@1(3cd4957ae1e5)" optype="continuous" dataType="double">
				<Apply function="tf-idf@1">
					<FieldRef field="lowercase(x1)"/>
					<Constant dataType="string">3cd4957ae1e5</Constant>
					<Constant dataType="double">3.60699118309933</Constant>
				</Apply>
			</DerivedField>
			<DerivedField name="tf-idf@1(3d04e8a08335)" optype="continuous" dataType="double">
				<Apply function="tf-idf@1">
					<FieldRef field="lowercase(x1)"/>
					<Constant dataType="string">3d04e8a08335</Constant>
					<Constant dataType="double">4.243367509169202</Constant>
				</Apply>
			</DerivedField>
			<DerivedField name="tf-idf@1(3d7d3428b9ba)" optype="continuous" dataType="double">
				<Apply function="tf-idf@1">
					<FieldRef field="lowercase(x1)"/>
					<Constant dataType="string">3d7d3428b9ba</Constant>
					<Constant dataType="double">4.2205652182952225</Constant>
				</Apply>
			</DerivedField>
			<DerivedField name="tf-idf@1(3d877a3bc4f0)" optype="continuous" dataType="double">
				<Apply function="tf-idf@1">
					<FieldRef field="lowercase(x1)"/>
					<Constant dataType="string">3d877a3bc4f0</Constant>
					<Constant dataType="double">3.9116724925678827</Constant>
				</Apply>
			</DerivedField>
			<DerivedField name="tf-idf@1(3d9a3fcc2f1c)" optype="continuous" dataType="double">
				<Apply function="tf-idf@1">
					<FieldRef field="lowercase(x1)"/>
					<Constant dataType="string">3d9a3fcc2f1c</Constant>
					<Constant dataType="double">4.651100425691834</Constant>
				</Apply>
			</DerivedField>
			<DerivedField name="tf-idf@1(3dac94ac4a67)" optype="continuous" dataType="double">
				<Apply function="tf-idf@1">
					<FieldRef field="lowercase(x1)"/>
					<Constant dataType="string">3dac94ac4a67</Constant>
					<Constant dataType="double">5.447889613151905</Constant>
				</Apply>
			</DerivedField>
			<DerivedField name="tf-idf@1(3e0e84f4ee42)" optype="continuous" dataType="double">
				<Apply function="tf-idf@1">
					<FieldRef field="lowercase(x1)"/>
					<Constant dataType="string">3e0e84f4ee42</Constant>
					<Constant dataType="double">4.683828330927115</Constant>
				</Apply>
			</DerivedField>
			<DerivedField name="tf-idf@1(3e400a646af9)" optype="continuous" dataType="double">
				<Apply function="tf-idf@1">
					<FieldRef field="lowercase(x1)"/>
					<Constant dataType="string">3e400a646af9</Constant>
					<Constant dataType="double">5.274305752786156</Constant>
				</Apply>
			</DerivedField>
			<DerivedField name="tf-idf@1(406c149f55d0)" optype="continuous" dataType="double">
				<Apply function="tf-idf@1">
					<FieldRef field="lowercase(x1)"/>
					<Constant dataType="string">406c149f55d0</Constant>
					<Constant dataType="double">4.449866984013369</Constant>
				</Apply>
			</DerivedField>
			<DerivedField name="tf-idf@1(40d775b9c777)" optype="continuous" dataType="double">
				<Apply function="tf-idf@1">
					<FieldRef field="lowercase(x1)"/>
					<Constant dataType="string">40d775b9c777</Constant>
					<Constant dataType="double">4.5432044273980585</Constant>
				</Apply>
			</DerivedField>
			<DerivedField name="tf-idf@1(40f3a08093c6)" optype="continuous" dataType="double">
				<Apply function="tf-idf@1">
					<FieldRef field="lowercase(x1)"/>
					<Constant dataType="string">40f3a08093c6</Constant>
					<Constant dataType="double">3.3978952727983707</Constant>
				</Apply>
			</DerivedField>
			<DerivedField name="tf-idf@1(41a0ee0cf31a)" optype="continuous" dataType="double">
				<Apply function="tf-idf@1">
					<FieldRef field="lowercase(x1)"/>
					<Constant dataType="string">41a0ee0cf31a</Constant>
					<Constant dataType="double">3.8447904293964936</Constant>
				</Apply>
			</DerivedField>
			<DerivedField name="tf-idf@1(422068f04236)" optype="continuous" dataType="double">
				<Apply function="tf-idf@1">
					<FieldRef field="lowercase(x1)"/>
					<Constant dataType="string">422068f04236</Constant>
					<Constant dataType="double">1.7220968925529325</Constant>
				</Apply>
			</DerivedField>
			<DerivedField name="tf-idf@1(422068f04236 6099f4533cc2)" optype="continuous" dataType="double">
				<Apply function="tf-idf@1">
					<FieldRef field="lowercase(x1)"/>
					<Constant dataType="string">422068f04236 6099f4533cc2</Constant>
					<Constant dataType="double">4.337895457928474</Constant>
				</Apply>
			</DerivedField>
			<DerivedField name="tf-idf@1(422068f04236 641356219cbc)" optype="continuous" dataType="double">
				<Apply function="tf-idf@1">
					<FieldRef field="lowercase(x1)"/>
					<Constant dataType="string">422068f04236 641356219cbc</Constant>
					<Constant dataType="double">3.974812838981565</Constant>
				</Apply>
			</DerivedField>
			<DerivedField name="tf-idf@1(427028e08976)" optype="continuous" dataType="double">
				<Apply function="tf-idf@1">
					<FieldRef field="lowercase(x1)"/>
					<Constant dataType="string">427028e08976</Constant>
					<Constant dataType="double">3.081968644986049</Constant>
				</Apply>
			</DerivedField>
			<DerivedField name="tf-idf@1(427028e08976 0efaf9ea8493)" optype="continuous" dataType="double">
				<Apply function="tf-idf@1">
					<FieldRef field="lowercase(x1)"/>
					<Constant dataType="string">427028e08976 0efaf9ea8493</Constant>
					<Constant dataType="double">5.125447840855415</Constant>
				</Apply>
			</DerivedField>
			<DerivedField name="tf-idf@1(4298762de22f)" optype="continuous" dataType="double">
				<Apply function="tf-idf@1">
					<FieldRef field="lowercase(x1)"/>
					<Constant dataType="string">4298762de22f</Constant>
					<Constant dataType="double">5.163992165895297</Constant>
				</Apply>
			</DerivedField>
			<DerivedField name="tf-idf@1(42e393bc7d8e)" optype="continuous" dataType="double">
				<Apply function="tf-idf@1">
					<FieldRef field="lowercase(x1)"/>
					<Constant dataType="string">42e393bc7d8e</Constant>
					<Constant dataType="double">2.9476478528280046</Constant>
				</Apply>
			</DerivedField>
			<DerivedField name="tf-idf@1(430ac7448a1d)" optype="continuous" dataType="double">
				<Apply function="tf-idf@1">
					<FieldRef field="lowercase(x1)"/>
					<Constant dataType="string">430ac7448a1d</Constant>
					<Constant dataType="double">3.4773634329122927</Constant>
				</Apply>
			</DerivedField>
			<DerivedField name="tf-idf@1(432bd6e0c08f)" optype="continuous" dataType="double">
				<Apply function="tf-idf@1">
					<FieldRef field="lowercase(x1)"/>
					<Constant dataType="string">432bd6e0c08f</Constant>
					<Constant dataType="double">3.1916937227897533</Constant>
				</Apply>
			</DerivedField>
			<DerivedField name="tf-idf@1(432bd6e0c08f 4e5019f629a9)" optype="continuous" dataType="double">
				<Apply function="tf-idf@1">
					<FieldRef field="lowercase(x1)"/>
					<Constant dataType="string">432bd6e0c08f 4e5019f629a9</Constant>
					<Constant dataType="double">4.4377883268481915</Constant>
				</Apply>
			</DerivedField>
			<DerivedField name="tf-idf@1(432bd6e0c08f 8754554be158)" optype="continuous" dataType="double">
				<Apply function="tf-idf@1">
					<FieldRef field="lowercase(x1)"/>
					<Constant dataType="string">432bd6e0c08f 8754554be158</Constant>
					<Constant dataType="double">5.558146099421938</Constant>
				</Apply>
			</DerivedField>
			<DerivedField name="tf-idf@1(43af6db29054)" optype="continuous" dataType="double">
				<Apply function="tf-idf@1">
					<FieldRef field="lowercase(x1)"/>
					<Constant dataType="string">43af6db29054</Constant>
					<Constant dataType="double">2.4959599622563076</Constant>
				</Apply>
			</DerivedField>
			<DerivedField name="tf-idf@1(4410d50d4b88)" optype="continuous" dataType="double">
				<Apply function="tf-idf@1">
					<FieldRef field="lowercase(x1)"/>
					<Constant dataType="string">4410d50d4b88</Constant>
					<Constant dataType="double">4.959006266738923</Constant>
				</Apply>
			</DerivedField>
			<DerivedField name="tf-idf@1(44d3870bca21)" optype="continuous" dataType="double">
				<Apply function="tf-idf@1">
					<FieldRef field="lowercase(x1)"/>
					<Constant dataType="string">44d3870bca21</Constant>
					<Constant dataType="double">4.995904489408848</Constant>
				</Apply>
			</DerivedField>
			<DerivedField name="tf-idf@1(45238a6f945e)" optype="continuous" dataType="double">
				<Apply function="tf-idf@1">
					<FieldRef field="lowercase(x1)"/>
					<Constant dataType="string">45238a6f945e</Constant>
					<Constant dataType="double">5.061842590900842</Constant>
				</Apply>
			</DerivedField>
			<DerivedField name="tf-idf@1(455dcf65183b)" optype="continuous" dataType="double">
				<Apply function="tf-idf@1">
					<FieldRef field="lowercase(x1)"/>
					<Constant dataType="string">455dcf65183b</Constant>
					<Constant dataType="double">5.040594678366665</Constant>
				</Apply>
			</DerivedField>
			<DerivedField name="tf-idf@1(456ae89dd359)" optype="continuous" dataType="double">
				<Apply function="tf-idf@1">
					<FieldRef field="lowercase(x1)"/>
					<Constant dataType="string">456ae89dd359</Constant>
					<Constant dataType="double">5.068399991447001</Constant>
				</Apply>
			</DerivedField>
			<DerivedField name="tf-idf@1(458fb753e194)" optype="continuous" dataType="double">
				<Apply function="tf-idf@1">
					<FieldRef field="lowercase(x1)"/>
					<Constant dataType="string">458fb753e194</Constant>
					<Constant dataType="double">4.104752273721102</Constant>
				</Apply>
			</DerivedField>
			<DerivedField name="tf-idf@1(45e16cbae38f)" optype="continuous" dataType="double">
				<Apply function="tf-idf@1">
					<FieldRef field="lowercase(x1)"/>
					<Constant dataType="string">45e16cbae38f</Constant>
					<Constant dataType="double">4.358939235395533</Constant>
				</Apply>
			</DerivedField>
			<DerivedField name="tf-idf@1(46a0c35e916c d9ef68daef4c)" optype="continuous" dataType="double">
				<Apply function="tf-idf@1">
					<FieldRef field="lowercase(x1)"/>
					<Constant dataType="string">46a0c35e916c d9ef68daef4c</Constant>
					<Constant dataType="double">5.598840290248493</Constant>
				</Apply>
			</DerivedField>
			<DerivedField name="tf-idf@1(46c88d9303da)" optype="continuous" dataType="double">
				<Apply function="tf-idf@1">
					<FieldRef field="lowercase(x1)"/>
					<Constant dataType="string">46c88d9303da</Constant>
					<Constant dataType="double">2.012352741535003</Constant>
				</Apply>
			</DerivedField>
			<DerivedField name="tf-idf@1(470aa9b28443)" optype="continuous" dataType="double">
				<Apply function="tf-idf@1">
					<FieldRef field="lowercase(x1)"/>
					<Constant dataType="string">470aa9b28443</Constant>
					<Constant dataType="double">4.210551114982169</Constant>
				</Apply>
			</DerivedField>
			<DerivedField name="tf-idf@1(47a93bc40c2e)" optype="continuous" dataType="double">
				<Apply function="tf-idf@1">
					<FieldRef field="lowercase(x1)"/>
					<Constant dataType="string">47a93bc40c2e</Constant>
					<Constant dataType="double">3.9413731907762726</Constant>
				</Apply>
			</DerivedField>
			<DerivedField name="tf-idf@1(48c49f69fddc)" optype="continuous" dataType="double">
				<Apply function="tf-idf@1">
					<FieldRef field="lowercase(x1)"/>
					<Constant dataType="string">48c49f69fddc</Constant>
					<Constant dataType="double">5.411472912099566</Constant>
				</Apply>
			</DerivedField>
			<DerivedField name="tf-idf@1(48d657cd9861)" optype="continuous" dataType="double">
				<Apply function="tf-idf@1">
					<FieldRef field="lowercase(x1)"/>
					<Constant dataType="string">48d657cd9861</Constant>
					<Constant dataType="double">2.2010031805696952</Constant>
				</Apply>
			</DerivedField>
			<DerivedField name="tf-idf@1(494c486bfa24)" optype="continuous" dataType="double">
				<Apply function="tf-idf@1">
					<FieldRef field="lowercase(x1)"/>
					<Constant dataType="string">494c486bfa24</Constant>
					<Constant dataType="double">3.821832328962435</Constant>
				</Apply>
			</DerivedField>
			<DerivedField name="tf-idf@1(4978e97aaf9b)" optype="continuous" dataType="double">
				<Apply function="tf-idf@1">
					<FieldRef field="lowercase(x1)"/>
					<Constant dataType="string">4978e97aaf9b</Constant>
					<Constant dataType="double">3.9432019020448164</Constant>
				</Apply>
			</DerivedField>
			<DerivedField name="tf-idf@1(49f492648b67)" optype="continuous" dataType="double">
				<Apply function="tf-idf@1">
					<FieldRef field="lowercase(x1)"/>
					<Constant dataType="string">49f492648b67</Constant>
					<Constant dataType="double">5.445146127206154</Constant>
				</Apply>
			</DerivedField>
			<DerivedField name="tf-idf@1(4a0084089b01)" optype="continuous" dataType="double">
				<Apply function="tf-idf@1">
					<FieldRef field="lowercase(x1)"/>
					<Constant dataType="string">4a0084089b01</Constant>
					<Constant dataType="double">4.772760938094638</Constant>
				</Apply>
			</DerivedField>
			<DerivedField name="tf-idf@1(4a3d4e079c7d)" optype="continuous" dataType="double">
				<Apply function="tf-idf@1">
					<FieldRef field="lowercase(x1)"/>
					<Constant dataType="string">4a3d4e079c7d</Constant>
					<Constant dataType="double">5.122467212717278</Constant>
				</Apply>
			</DerivedField>
			<DerivedField name="tf-idf@1(4a68a8674193)" optype="continuous" dataType="double">
				<Apply function="tf-idf@1">
					<FieldRef field="lowercase(x1)"/>
					<Constant dataType="string">4a68a8674193</Constant>
					<Constant dataType="double">5.03603470694497</Constant>
				</Apply>
			</DerivedField>
			<DerivedField name="tf-idf@1(4ac8853e4d7e)" optype="continuous" dataType="double">
				<Apply function="tf-idf@1">
					<FieldRef field="lowercase(x1)"/>
					<Constant dataType="string">4ac8853e4d7e</Constant>
					<Constant dataType="double">4.720314462722095</Constant>
				</Apply>
			</DerivedField>
			<DerivedField name="tf-idf@1(4ad52689d690)" optype="continuous" dataType="double">
				<Apply function="tf-idf@1">
					<FieldRef field="lowercase(x1)"/>
					<Constant dataType="string">4ad52689d690</Constant>
					<Constant dataType="double">2.0160315790949648</Constant>
				</Apply>
			</DerivedField>
			<DerivedField name="tf-idf@1(4b1b19d4c756)" optype="continuous" dataType="double">
				<Apply function="tf-idf@1">
					<FieldRef field="lowercase(x1)"/>
					<Constant dataType="string">4b1b19d4c756</Constant>
					<Constant dataType="double">4.944786035479825</Constant>
				</Apply>
			</DerivedField>
			<DerivedField name="tf-idf@1(4b1b19d4c756 001acce69dc4)" optype="continuous" dataType="double">
				<Apply function="tf-idf@1">
					<FieldRef field="lowercase(x1)"/>
					<Constant dataType="string">4b1b19d4c756 001acce69dc4</Constant>
					<Constant dataType="double">5.394400928200919</Constant>
				</Apply>
			</DerivedField>
			<DerivedField name="tf-idf@1(4b47049a7fd1)" optype="continuous" dataType="double">
				<Apply function="tf-idf@1">
					<FieldRef field="lowercase(x1)"/>
					<Constant dataType="string">4b47049a7fd1</Constant>
					<Constant dataType="double">5.1204850515132865</Constant>
				</Apply>
			</DerivedField>
			<DerivedField name="tf-idf@1(4b4bb78cebae)" optype="continuous" dataType="double">
				<Apply function="tf-idf@1">
					<FieldRef field="lowercase(x1)"/>
					<Constant dataType="string">4b4bb78cebae</Constant>
					<Constant dataType="double">4.899323661403068</Constant>
				</Apply>
			</DerivedField>
			<DerivedField name="tf-idf@1(4b5f7fa402e5)" optype="continuous" dataType="double">
				<Apply function="tf-idf@1">
					<FieldRef field="lowercase(x1)"/>
					<Constant dataType="string">4b5f7fa402e5</Constant>
					<Constant dataType="double">4.70778544950419</Constant>
				</Apply>
			</DerivedField>
			<DerivedField name="tf-idf@1(4ba791167817)" optype="continuous" dataType="double">
				<Apply function="tf-idf@1">
					<FieldRef field="lowercase(x1)"/>
					<Constant dataType="string">4ba791167817</Constant>
					<Constant dataType="double">3.551250513103375</Constant>
				</Apply>
			</DerivedField>
			<DerivedField name="tf-idf@1(4bfcec3d7413)" optype="continuous" dataType="double">
				<Apply function="tf-idf@1">
					<FieldRef field="lowercase(x1)"/>
					<Constant dataType="string">4bfcec3d7413</Constant>
					<Constant dataType="double">5.208396923836166</Constant>
				</Apply>
			</DerivedField>
			<DerivedField name="tf-idf@1(4ce4bfb42e22)" optype="continuous" dataType="double">
				<Apply function="tf-idf@1">
					<FieldRef field="lowercase(x1)"/>
					<Constant dataType="string">4ce4bfb42e22</Constant>
					<Constant dataType="double">2.880196769744618</Constant>
				</Apply>
			</DerivedField>
			<DerivedField name="tf-idf@1(4ce4bfb42e22 48d657cd9861)" optype="continuous" dataType="double">
				<Apply function="tf-idf@1">
					<FieldRef field="lowercase(x1)"/>
					<Constant dataType="string">4ce4bfb42e22 48d657cd9861</Constant>
					<Constant dataType="double">4.7256371632459935</Constant>
				</Apply>
			</DerivedField>
			<DerivedField name="tf-idf@1(4cfb0660d4b4)" optype="continuous" dataType="double">
				<Apply function="tf-idf@1">
					<FieldRef field="lowercase(x1)"/>
					<Constant dataType="string">4cfb0660d4b4</Constant>
					<Constant dataType="double">5.057184920626861</Constant>
				</Apply>
			</DerivedField>
			<DerivedField name="tf-idf@1(4dfbcc2082ef)" optype="continuous" dataType="double">
				<Apply function="tf-idf@1">
					<FieldRef field="lowercase(x1)"/>
					<Constant dataType="string">4dfbcc2082ef</Constant>
					<Constant dataType="double">5.103793451420033</Constant>
				</Apply>
			</DerivedField>
			<DerivedField name="tf-idf@1(4e5019f629a9)" optype="continuous" dataType="double">
				<Apply function="tf-idf@1">
					<FieldRef field="lowercase(x1)"/>
					<Constant dataType="string">4e5019f629a9</Constant>
					<Constant dataType="double">1.852159214216806</Constant>
				</Apply>
			</DerivedField>
			<DerivedField name="tf-idf@1(4e5019f629a9 cafaf222091d)" optype="continuous" dataType="double">
				<Apply function="tf-idf@1">
					<FieldRef field="lowercase(x1)"/>
					<Constant dataType="string">4e5019f629a9 cafaf222091d</Constant>
					<Constant dataType="double">5.011763852648956</Constant>
				</Apply>
			</DerivedField>
			<DerivedField name="tf-idf@1(4e5019f629a9 d38820625542)" optype="continuous" dataType="double">
				<Apply function="tf-idf@1">
					<FieldRef field="lowercase(x1)"/>
					<Constant dataType="string">4e5019f629a9 d38820625542</Constant>
					<Constant dataType="double">5.0665220566228015</Constant>
				</Apply>
			</DerivedField>
			<DerivedField name="tf-idf@1(4e5019f629a9 eeb86a6a04e4)" optype="continuous" dataType="double">
				<Apply function="tf-idf@1">
					<FieldRef field="lowercase(x1)"/>
					<Constant dataType="string">4e5019f629a9 eeb86a6a04e4</Constant>
					<Constant dataType="double">4.28929932409306</Constant>
				</Apply>
			</DerivedField>
			<DerivedField name="tf-idf@1(4e7b1501a15b)" optype="continuous" dataType="double">
				<Apply function="tf-idf@1">
					<FieldRef field="lowercase(x1)"/>
					<Constant dataType="string">4e7b1501a15b</Constant>
					<Constant dataType="double">4.926678544852434</Constant>
				</Apply>
			</DerivedField>
			<DerivedField name="tf-idf@1(4e7b1501a15b cbb85084612b)" optype="continuous" dataType="double">
				<Apply function="tf-idf@1">
					<FieldRef field="lowercase(x1)"/>
					<Constant dataType="string">4e7b1501a15b cbb85084612b</Constant>
					<Constant dataType="double">5.103793451420033</Constant>
				</Apply>
			</DerivedField>
			<DerivedField name="tf-idf@1(4e9eb063e763)" optype="continuous" dataType="double">
				<Apply function="tf-idf@1">
					<FieldRef field="lowercase(x1)"/>
					<Constant dataType="string">4e9eb063e763</Constant>
					<Constant dataType="double">4.318172720916347</Constant>
				</Apply>
			</DerivedField>
			<DerivedField name="tf-idf@1(4ea63014c7a0)" optype="continuous" dataType="double">
				<Apply function="tf-idf@1">
					<FieldRef field="lowercase(x1)"/>
					<Constant dataType="string">4ea63014c7a0</Constant>
					<Constant dataType="double">4.785428243295404</Constant>
				</Apply>
			</DerivedField>
			<DerivedField name="tf-idf@1(4eb37245db2f)" optype="continuous" dataType="double">
				<Apply function="tf-idf@1">
					<FieldRef field="lowercase(x1)"/>
					<Constant dataType="string">4eb37245db2f</Constant>
					<Constant dataType="double">2.654149114872065</Constant>
				</Apply>
			</DerivedField>
			<DerivedField name="tf-idf@1(4eb7c8207490)" optype="continuous" dataType="double">
				<Apply function="tf-idf@1">
					<FieldRef field="lowercase(x1)"/>
					<Constant dataType="string">4eb7c8207490</Constant>
					<Constant dataType="double">4.921796517255126</Constant>
				</Apply>
			</DerivedField>
			<DerivedField name="tf-idf@1(4f5e0215c1bf)" optype="continuous" dataType="double">
				<Apply function="tf-idf@1">
					<FieldRef field="lowercase(x1)"/>
					<Constant dataType="string">4f5e0215c1bf</Constant>
					<Constant dataType="double">4.2936208519940955</Constant>
				</Apply>
			</DerivedField>
			<DerivedField name="tf-idf@1(4faebb8051b2)" optype="continuous" dataType="double">
				<Apply function="tf-idf@1">
					<FieldRef field="lowercase(x1)"/>
					<Constant dataType="string">4faebb8051b2</Constant>
					<Constant dataType="double">2.5754586636992136</Constant>
				</Apply>
			</DerivedField>
			<DerivedField name="tf-idf@1(4faebb8051b2 22d6fd31d92b)" optype="continuous" dataType="double">
				<Apply function="tf-idf@1">
					<FieldRef field="lowercase(x1)"/>
					<Constant dataType="string">4faebb8051b2 22d6fd31d92b</Constant>
					<Constant dataType="double">3.7001241358297894</Constant>
				</Apply>
			</DerivedField>
			<DerivedField name="tf-idf@1(4ffb12504ac6)" optype="continuous" dataType="double">
				<Apply function="tf-idf@1">
					<FieldRef field="lowercase(x1)"/>
					<Constant dataType="string">4ffb12504ac6</Constant>
					<Constant dataType="double">2.9749591544106204</Constant>
				</Apply>
			</DerivedField>
			<DerivedField name="tf-idf@1(4ffb12504ac6 586242498a88)" optype="continuous" dataType="double">
				<Apply function="tf-idf@1">
					<FieldRef field="lowercase(x1)"/>
					<Constant dataType="string">4ffb12504ac6 586242498a88</Constant>
					<Constant dataType="double">5.43289274040039</Constant>
				</Apply>
			</DerivedField>
			<DerivedField name="tf-idf@1(5037561ecd63)" optype="continuous" dataType="double">
				<Apply function="tf-idf@1">
					<FieldRef field="lowercase(x1)"/>
					<Constant dataType="string">5037561ecd63</Constant>
					<Constant dataType="double">4.053387271614185</Constant>
				</Apply>
			</DerivedField>
			<DerivedField name="tf-idf@1(50798a03ad62)" optype="continuous" dataType="double">
				<Apply function="tf-idf@1">
					<FieldRef field="lowercase(x1)"/>
					<Constant dataType="string">50798a03ad62</Constant>
					<Constant dataType="double">4.814894981786277</Constant>
				</Apply>
			</DerivedField>
			<DerivedField name="tf-idf@1(51f2afdeb9e7)" optype="continuous" dataType="double">
				<Apply function="tf-idf@1">
					<FieldRef field="lowercase(x1)"/>
					<Constant dataType="string">51f2afdeb9e7</Constant>
					<Constant dataType="double">4.912907569837881</Constant>
				</Apply>
			</DerivedField>
			<DerivedField name="tf-idf@1(52102c70348d)" optype="continuous" dataType="double">
				<Apply function="tf-idf@1">
					<FieldRef field="lowercase(x1)"/>
					<Constant dataType="string">52102c70348d</Constant>
					<Constant dataType="double">2.805795298591577</Constant>
				</Apply>
			</DerivedField>
			<DerivedField name="tf-idf@1(52c54f67c943)" optype="continuous" dataType="double">
				<Apply function="tf-idf@1">
					<FieldRef field="lowercase(x1)"/>
					<Constant dataType="string">52c54f67c943</Constant>
					<Constant dataType="double">3.08869570787063</Constant>
				</Apply>
			</DerivedField>
			<DerivedField name="tf-idf@1(5345f1c6a22c)" optype="continuous" dataType="double">
				<Apply function="tf-idf@1">
					<FieldRef field="lowercase(x1)"/>
					<Constant dataType="string">5345f1c6a22c</Constant>
					<Constant dataType="double">5.0665220566228015</Constant>
				</Apply>
			</DerivedField>
			<DerivedField name="tf-idf@1(54b2133ed102)" optype="continuous" dataType="double">
				<Apply function="tf-idf@1">
					<FieldRef field="lowercase(x1)"/>
					<Constant dataType="string">54b2133ed102</Constant>
					<Constant dataType="double">4.100101934451639</Constant>
				</Apply>
			</DerivedField>
			<DerivedField name="tf-idf@1(54d705efe920)" optype="continuous" dataType="double">
				<Apply function="tf-idf@1">
					<FieldRef field="lowercase(x1)"/>
					<Constant dataType="string">54d705efe920</Constant>
					<Constant dataType="double">5.221454780753623</Constant>
				</Apply>
			</DerivedField>
			<DerivedField name="tf-idf@1(551f3e851e73)" optype="continuous" dataType="double">
				<Apply function="tf-idf@1">
					<FieldRef field="lowercase(x1)"/>
					<Constant dataType="string">551f3e851e73</Constant>
					<Constant dataType="double">4.511473099995886</Constant>
				</Apply>
			</DerivedField>
			<DerivedField name="tf-idf@1(557ec6c63cf9)" optype="continuous" dataType="double">
				<Apply function="tf-idf@1">
					<FieldRef field="lowercase(x1)"/>
					<Constant dataType="string">557ec6c63cf9</Constant>
					<Constant dataType="double">2.5896999059516768</Constant>
				</Apply>
			</DerivedField>
			<DerivedField name="tf-idf@1(557ec6c63cf9 54709b24b45f)" optype="continuous" dataType="double">
				<Apply function="tf-idf@1">
					<FieldRef field="lowercase(x1)"/>
					<Constant dataType="string">557ec6c63cf9 54709b24b45f</Constant>
					<Constant dataType="double">4.965768760811221</Constant>
				</Apply>
			</DerivedField>
			<DerivedField name="tf-idf@1(557ec6c63cf9 8754554be158)" optype="continuous" dataType="double">
				<Apply function="tf-idf@1">
					<FieldRef field="lowercase(x1)"/>
					<Constant dataType="string">557ec6c63cf9 8754554be158</Constant>
					<Constant dataType="double">4.9564820752430165</Constant>
				</Apply>
			</DerivedField>
			<DerivedField name="tf-idf@1(558ab14e760c)" optype="continuous" dataType="double">
				<Apply function="tf-idf@1">
					<FieldRef field="lowercase(x1)"/>
					<Constant dataType="string">558ab14e760c</Constant>
					<Constant dataType="double">4.835529464825354</Constant>
				</Apply>
			</DerivedField>
			<DerivedField name="tf-idf@1(558adc5b0cef)" optype="continuous" dataType="double">
				<Apply function="tf-idf@1">
					<FieldRef field="lowercase(x1)"/>
					<Constant dataType="string">558adc5b0cef</Constant>
					<Constant dataType="double">3.6529301411931794</Constant>
				</Apply>
			</DerivedField>
			<DerivedField name="tf-idf@1(55c0cd1cc044)" optype="continuous" dataType="double">
				<Apply function="tf-idf@1">
					<FieldRef field="lowercase(x1)"/>
					<Constant dataType="string">55c0cd1cc044</Constant>
					<Constant dataType="double">5.093139597622757</Constant>
				</Apply>
			</DerivedField>
			<DerivedField name="tf-idf@1(564aaf0c408b)" optype="continuous" dataType="double">
				<Apply function="tf-idf@1">
					<FieldRef field="lowercase(x1)"/>
					<Constant dataType="string">564aaf0c408b</Constant>
					<Constant dataType="double">2.3078667278216525</Constant>
				</Apply>
			</DerivedField>
			<DerivedField name="tf-idf@1(5698b3115633)" optype="continuous" dataType="double">
				<Apply function="tf-idf@1">
					<FieldRef field="lowercase(x1)"/>
					<Constant dataType="string">5698b3115633</Constant>
					<Constant dataType="double">3.3172406324183346</Constant>
				</Apply>
			</DerivedField>
			<DerivedField name="tf-idf@1(56c2c356d772)" optype="continuous" dataType="double">
				<Apply function="tf-idf@1">
					<FieldRef field="lowercase(x1)"/>
					<Constant dataType="string">56c2c356d772</Constant>
					<Constant dataType="double">3.0514939657283007</Constant>
				</Apply>
			</DerivedField>
			<DerivedField name="tf-idf@1(56c2c356d772 365a9390d225)" optype="continuous" dataType="double">
				<Apply function="tf-idf@1">
					<FieldRef field="lowercase(x1)"/>
					<Constant dataType="string">56c2c356d772 365a9390d225</Constant>
